{"learner":{"attributes":{"scikit_learn":"{\"_estimator_type\": \"classifier\"}"},"feature_names":[],"feature_types":[],"gradient_booster":{"model":{"gbtree_model_param":{"num_parallel_tree":"1","num_trees":"100"},"iteration_indptr":[0,1,2,3,4,5,6,7,8,9,10,11,12,13,14,15,16,17,18,19,20,21,22,23,24,25,26,27,28,29,30,31,32,33,34,35,36,37,38,39,40,41,42,43,44,45,46,47,48,49,50,51,52,53,54,55,56,57,58,59,60,61,62,63,64,65,66,67,68,69,70,71,72,73,74,75,76,77,78,79,80,81,82,83,84,85,86,87,88,89,90,91,92,93,94,95,96,97,98,99,100],"tree_info":[0,0,0,0,0,0,0,0,0,0,0,0,0,0,0,0,0,0,0,0,0,0,0,0,0,0,0,0,0,0,0,0,0,0,0,0,0,0,0,0,0,0,0,0,0,0,0,0,0,0,0,0,0,0,0,0,0,0,0,0,0,0,0,0,0,0,0,0,0,0,0,0,0,0,0,0,0,0,0,0,0,0,0,0,0,0,0,0,0,0,0,0,0,0,0,0,0,0,0,0],"trees":[{"base_weights":[1.1951817E-2,1.5731407E0,-5.4898167E-1,1.581425E0,-6.0428023E-1,-9.463284E-1,1.5326496E0,-4.3292782E-1,1.5846198E0,-1.1974711E0,1.4507686E0,1.5480326E0,-3.6412516E-1,1.5865352E0,-1.2793452E-1,-1.4055539E0,1.4104484E0,1.4844352E0,-5.9207493E-1,-4.68942E-1,1.5566155E0,-5.44424E-1,7.63683E-1,1.587813E0,-5.042925E-2,-1.5622236E0,1.4852351E0,-5.9207493E-1,1.457835E0,-4.985666E-1,1.5043288E0,-4.68942E-1,1.5652331E0,3.329461E-1,-5.042925E-2,-5.042925E-2,4.7672772E-1,-4.9656215E-1,4.6974057E-1,-1.9096442E-1,4.529131E-1,-5.2336353E-1,4.4701236E-1,4.555967E-1,-4.3292782E-1,4.717324E-1,-4.3292782E-1],"categories":[],"categories_nodes":[],"categories_segments":[],"categories_sizes":[],"default_left":[0,1,1,0,0,1,1,0,1,1,1,0,1,1,0,1,0,0,0,0,0,0,0,0,0,1,0,0,0,0,1,0,1,0,0,0,0,0,0,0,0,0,0,0,0,0,0],"id":0,"left_children":[1,3,5,7,-1,9,11,-1,13,15,17,19,21,23,-1,25,27,29,-1,-1,31,-1,33,35,-1,37,39,-1,41,-1,43,-1,45,-1,-1,-1,-1,-1,-1,-1,-1,-1,-1,-1,-1,-1,-1],"loss_changes":[5.180617E3,4.9656982E1,3.6012207E3,1.7367188E1,0E0,2.2021897E3,2.0929077E1,0E0,6.684326E0,1.7976943E3,4.2943726E1,2.0925781E1,1.1896705E1,3.760254E0,0E0,1.39048E3,4.2167267E1,2.4049011E1,0E0,0E0,2.1028198E1,0E0,1.5793126E0,3.7653809E0,0E0,8.4838916E2,9.170654E0,0E0,2.7579895E1,0E0,1.6659973E1,0E0,1.722583E1,0E0,0E0,0E0,0E0,0E0,0E0,0E0,0E0,0E0,0E0,0E0,0E0,0E0,0E0],"parents":[2147483647,0,0,1,1,2,2,3,3,5,5,6,6,8,8,9,9,10,10,11,11,12,12,13,13,15,15,16,16,17,17,20,20,22,22,23,23,25,25,26,26,28,28,30,30,32,32],"right_children":[2,4,6,8,-1,10,12,-1,14,16,18,20,22,24,-1,26,28,30,-1,-1,32,-1,34,36,-1,38,40,-1,42,-1,44,-1,46,-1,-1,-1,-1,-1,-1,-1,-1,-1,-1,-1,-1,-1,-1],"split_conditions":[7.10936E-1,3.1638393E-1,1.9986378E-2,3.5952726E-1,-6.0428023E-1,7.4816205E-2,2.2432235E-1,-4.3292782E-1,3.5740685E-1,3.3938788E-2,2.2690235E-1,1.2764688E-1,4.789707E-2,2.1368118E-1,-1.2793452E-1,7.648698E-2,1.4047422E-1,3.0840397E-1,-5.9207493E-1,-4.68942E-1,4.6095353E-1,-5.44424E-1,3.4431347E-1,2.1993454E-1,-5.042925E-2,1.9639774E-1,4.2959064E-1,-5.9207493E-1,1.0138398E0,-4.985666E-1,1.9802555E-1,-4.68942E-1,3.3437547E-1,3.329461E-1,-5.042925E-2,-5.042925E-2,4.7672772E-1,-4.9656215E-1,4.6974057E-1,-1.9096442E-1,4.529131E-1,-5.2336353E-1,4.4701236E-1,4.555967E-1,-4.3292782E-1,4.717324E-1,-4.3292782E-1],"split_indices":[889,1060,894,2534,0,928,1060,0,1836,958,3090,1785,1020,294,0,3415,509,3485,0,0,4785,0,19,953,0,2333,2595,0,3833,0,1181,0,1059,0,0,0,0,0,0,0,0,0,0,0,0,0,0],"split_type":[0,0,0,0,0,0,0,0,0,0,0,0,0,0,0,0,0,0,0,0,0,0,0,0,0,0,0,0,0,0,0,0,0,0,0,0,0,0,0,0,0,0,0,0,0,0,0],"sum_hessian":[5.91383E3,1.5627059E3,4.3511245E3,1.5596635E3,3.0424547E0,3.6541558E3,6.9696857E2,1.170175E0,1.5584933E3,3.3080713E3,3.4608453E2,6.9154395E2,5.4246135E0,1.5572211E3,1.2721506E0,3.064055E3,2.4401628E2,3.4327612E2,2.8084197E0,1.4042099E0,6.901398E2,2.106315E0,3.3182986E0,1.556183E3,1.0381157E0,2.906968E3,1.5708685E2,2.8084197E0,2.4120786E2,1.6382449E0,3.4163788E2,1.4042099E0,6.8873553E2,2.2801828E0,1.0381157E0,1.0381157E0,1.5551449E3,2.8235073E3,8.346071E1,1.5061857E0,1.5558067E2,1.8722799E0,2.3933559E2,3.404677E2,1.170175E0,6.8756537E2,1.170175E0],"tree_param":{"num_deleted":"0","num_feature":"5000","num_nodes":"47","size_leaf_vector":"1"}},{"base_weights":[3.7636075E-2,1.3457834E0,-3.6219025E-1,1.3538225E0,-4.393668E-1,-6.262167E-1,1.3071306E0,-3.4760845E-1,1.357088E0,-7.725489E-1,1.4219062E0,1.3160307E0,-4.0200534E-1,1.3590521E0,-1.0443492E-1,-8.8985556E-1,1.4045018E0,-3.9865068E-1,1.449565E0,-3.6870265E-1,1.324626E0,1.3605645E0,-1.8209402E-2,-9.7892845E-1,1.4152994E0,-3.764557E-1,1.4379256E0,-4.7162884E-1,1.4725424E0,1.3367082E0,-9.881223E-2,4.085628E-1,-4.2411666E-2,3.9842826E-1,-3.2254615E-1,-4.8471782E-1,4.52849E-1,4.3919218E-1,-1.3487422E-1,4.4681996E-1,-2.924265E-1,-2.2983217E-1,4.0290385E-1,-4.0966135E-1,3.195616E-1],"categories":[],"categories_nodes":[],"categories_segments":[],"categories_sizes":[],"default_left":[0,1,1,0,0,1,1,0,1,1,0,0,0,1,0,1,0,0,0,0,1,1,0,0,0,0,1,0,1,0,1,0,0,0,0,0,0,0,0,0,0,0,0,0,0],"id":1,"left_children":[1,3,5,7,-1,9,11,-1,13,15,17,19,-1,21,-1,23,25,-1,27,-1,29,31,-1,33,35,-1,37,-1,39,41,43,-1,-1,-1,-1,-1,-1,-1,-1,-1,-1,-1,-1,-1,-1],"loss_changes":[2.9479148E3,3.1791016E1,1.9034608E3,1.2371094E1,0E0,1.1184104E3,1.5660522E1,0E0,4.876953E0,8.900005E2,2.0866608E1,1.4499023E1,0E0,2.9033203E0,0E0,6.7953E2,1.7654327E1,0E0,1.9460388E1,0E0,1.0225464E1,2.7773438E0,0E0,7.074751E2,3.7637634E1,0E0,9.339508E0,0E0,1.1584106E1,8.744873E0,1.0110938E1,0E0,0E0,0E0,0E0,0E0,0E0,0E0,0E0,0E0,0E0,0E0,0E0,0E0,0E0],"parents":[2147483647,0,0,1,1,2,2,3,3,5,5,6,6,8,8,9,9,10,10,11,11,13,13,15,15,16,16,18,18,20,20,21,21,23,23,24,24,26,26,28,28,29,29,30,30],"right_children":[2,4,6,8,-1,10,12,-1,14,16,18,20,-1,22,-1,24,26,-1,28,-1,30,32,-1,34,36,-1,38,-1,40,42,44,-1,-1,-1,-1,-1,-1,-1,-1,-1,-1,-1,-1,-1,-1],"split_conditions":[7.10936E-1,3.1638393E-1,2.9616611E-2,3.5952726E-1,-4.393668E-1,7.551108E-2,3.7119448E-1,-3.4760845E-1,3.5740685E-1,1.01290174E-1,1.0138398E0,4.6095353E-1,-4.0200534E-1,7.6111324E-2,-1.0443492E-1,8.572279E-2,2.989871E-1,-3.9865068E-1,1.0556885E-1,-3.6870265E-1,2.2432235E-1,2.1368118E-1,-1.8209402E-2,2.00001E0,1.4273739E0,-3.764557E-1,1.3933411E-1,-4.7162884E-1,1.9089414E-1,5.9303075E-1,4.789707E-2,4.085628E-1,-4.2411666E-2,3.9842826E-1,-3.2254615E-1,-4.8471782E-1,4.52849E-1,4.3919218E-1,-1.3487422E-1,4.4681996E-1,-2.924265E-1,-2.2983217E-1,4.0290385E-1,-4.0966135E-1,3.195616E-1],"split_indices":[889,1060,894,2534,0,929,1332,0,1836,2671,3833,4785,0,4493,0,4847,3799,0,530,0,1060,294,0,2176,2075,0,1451,0,3821,3062,1020,0,0,0,0,0,0,0,0,0,0,0,0,0,0],"split_type":[0,0,0,0,0,0,0,0,0,0,0,0,0,0,0,0,0,0,0,0,0,0,0,0,0,0,0,0,0,0,0,0,0,0,0,0,0,0,0,0,0,0,0,0,0],"sum_hessian":[5.6342744E3,1.3183959E3,4.315879E3,1.3151521E3,3.2437618E0,3.7270227E3,5.88856E2,1.2478147E0,1.3139043E3,3.4790762E3,2.4794666E2,5.87384E2,1.4720416E0,1.3125953E3,1.3088763E0,3.3017578E3,1.773183E2,1.9999771E0,2.4594667E2,1.4991486E0,5.858848E2,1.3112402E3,1.3551699E0,3.1794758E3,1.2228196E2,1.7473474E0,1.7557095E2,1.3473105E0,2.4459937E2,5.810141E2,4.8707457E0,1.3101895E3,1.0508015E0,1.2679275E2,3.052683E3,3.198837E0,1.1908312E2,1.7340231E2,2.168635E0,2.4331477E2,1.2845857E0,1.3765242E0,5.796376E2,2.2495646E0,2.621181E0],"tree_param":{"num_deleted":"0","num_feature":"5000","num_nodes":"45","size_leaf_vector":"1"}},{"base_weights":[4.688176E-2,1.2187213E0,-2.5785467E-1,1.2267696E0,-3.5884377E-1,-4.47327E-1,1.1788617E0,-2.9239422E-1,1.2302475E0,-5.801166E-1,1.1985221E0,1.192942E0,-6.64686E-1,1.2327124E0,-8.968894E-2,1.04223214E-1,-8.529432E-1,1.2299474E0,-3.8311732E-1,1.2021368E0,-3.181375E-1,-4.1626534E-1,2.016454E-1,1.2345256E0,-6.1614238E-2,1.2291197E0,-1.10395186E-1,-9.611438E-1,1.3153232E0,1.2476432E0,-3.9163932E-1,-3.073752E-1,1.2112435E0,3.7086725E-1,-3.287149E-2,-3.1344068E-1,3.783953E-1,6.597607E-1,-6.7565046E-2,5.157154E-1,-3.095256E-1,4.074193E-1,-3.231469E-2,3.7920025E-1,-4.2045695E-1,-1.8227217E-1,3.654617E-1],"categories":[],"categories_nodes":[],"categories_segments":[],"categories_sizes":[],"default_left":[0,1,1,0,0,1,1,0,1,0,1,1,1,1,0,0,1,1,0,0,0,0,0,1,0,0,0,0,1,1,0,0,0,0,0,0,0,0,0,0,0,0,0,0,0,0,0],"id":2,"left_children":[1,3,5,7,-1,9,11,-1,13,15,17,19,21,23,-1,25,27,29,-1,31,-1,-1,-1,33,-1,35,37,39,41,43,-1,-1,45,-1,-1,-1,-1,-1,-1,-1,-1,-1,-1,-1,-1,-1,-1],"loss_changes":[1.8377694E3,2.2109863E1,1.1123645E3,9.307617E0,0E0,7.894935E2,1.3152771E1,0E0,4.356201E0,6.2376636E2,2.2558685E1,1.1073303E1,5.0408936E0,3.0076904E0,0E0,2.3021977E2,5.615996E2,1.3604004E1,0E0,1.0801086E1,0E0,0E0,0E0,2.5445557E0,0E0,1.2503525E1,2.1298097E2,4.3238892E2,7.0765076E0,1.3279694E1,0E0,0E0,6.6917114E0,0E0,0E0,0E0,0E0,0E0,0E0,0E0,0E0,0E0,0E0,0E0,0E0,0E0,0E0],"parents":[2147483647,0,0,1,1,2,2,3,3,5,5,6,6,8,8,9,9,10,10,11,11,12,12,13,13,15,15,16,16,17,17,19,19,23,23,25,25,26,26,27,27,28,28,29,29,32,32],"right_children":[2,4,6,8,-1,10,12,-1,14,16,18,20,22,24,-1,26,28,30,-1,32,-1,-1,-1,34,-1,36,38,40,42,44,-1,-1,46,-1,-1,-1,-1,-1,-1,-1,-1,-1,-1,-1,-1,-1,-1],"split_conditions":[7.10936E-1,3.1638393E-1,3.786114E-2,3.5952726E-1,-3.5884377E-1,7.4816205E-2,2.3648845E-1,-2.9239422E-1,1.8735114E-1,9.086841E-2,2.2690235E-1,4.028598E-1,1.2825887E-1,2.7253592E-1,-8.968894E-2,2.8239685E-1,7.648698E-2,3.7377667E-1,-3.8311732E-1,4.6095353E-1,-3.181375E-1,-4.1626534E-1,2.016454E-1,2.5818685E-1,-6.1614238E-2,1.0138398E0,3.744257E-1,9.9443203E-1,1.0115683E-1,3.362909E-1,-3.9163932E-1,-3.073752E-1,5.9303075E-1,3.7086725E-1,-3.287149E-2,-3.1344068E-1,3.783953E-1,6.597607E-1,-6.7565046E-2,5.157154E-1,-3.095256E-1,4.074193E-1,-3.231469E-2,3.7920025E-1,-4.2045695E-1,-1.8227217E-1,3.654617E-1],"split_indices":[889,1060,894,2534,0,928,1059,0,2687,4713,3090,1060,1115,3833,0,958,3415,2346,0,4785,0,0,0,318,0,3833,2123,2122,4370,2962,0,0,3062,0,0,0,0,0,0,0,0,0,0,0,0,0,0],"split_type":[0,0,0,0,0,0,0,0,0,0,0,0,0,0,0,0,0,0,0,0,0,0,0,0,0,0,0,0,0,0,0,0,0,0,0,0,0,0,0,0,0,0,0,0,0,0,0],"sum_hessian":[5.1444604E3,1.0610972E3,4.0833635E3,1.0580629E3,3.034358E0,3.6082063E3,4.7515698E2,1.228481E0,1.0568344E3,3.339424E3,2.687824E2,4.719057E2,3.2512925E0,1.0553271E3,1.5071967E0,9.52031E2,2.387393E3,2.6591006E2,2.8723238E0,4.7045258E2,1.4531236E0,2.0856097E0,1.1656828E0,1.0541396E3,1.1874931E0,1.5177798E2,8.00253E2,2.2744504E3,1.1294265E2,2.645714E2,1.3386583E0,1.4620037E0,4.6899057E2,1.0528893E3,1.2503512E0,1.6800175E0,1.5009796E2,3.7040615E1,7.632124E2,5.7781853E1,2.2166685E3,1.0969366E2,3.2489958E0,2.634675E2,1.103932E0,1.4594423E0,4.6753113E2],"tree_param":{"num_deleted":"0","num_feature":"5000","num_nodes":"47","size_leaf_vector":"1"}},{"base_weights":[5.0376378E-2,1.1377993E0,-1.9118474E-1,1.146047E0,-3.0879655E-1,-3.3401588E-1,1.0911529E0,-2.5328124E-1,1.1498423E0,-4.223771E-1,1.2429839E0,1.1108905E0,-2.0853701E-1,1.1526152E0,-1.06438175E-1,-4.8120612E-1,1.9032638E0,-2.8472975E-1,1.2700701E0,-2.6519623E-1,1.1206313E0,-3.0031773E-1,5.43221E-1,1.154886E0,-8.196285E-2,-5.6622714E-1,1.0497468E0,3.8493568E-1,2.1051474E0,1.2923874E0,-3.362511E-1,1.1289821E0,-2.5601247E-1,2.4211046E-1,-2.2332696E-2,-6.505304E-2,3.471642E-1,4.4304347E-1,-1.8996204E-1,-2.8056136E-1,3.2871538E-1,-4.3066815E-2,6.5086764E-1,3.9385653E-1,-2.1332376E-1,-1.4653231E-1,3.410852E-1],"categories":[],"categories_nodes":[],"categories_segments":[],"categories_sizes":[],"default_left":[0,1,1,0,0,1,1,0,1,1,0,0,1,1,0,1,0,0,1,0,1,0,0,0,0,0,0,0,0,1,0,0,0,0,0,0,0,0,0,0,0,0,0,0,0,0,0],"id":3,"left_children":[1,3,5,7,-1,9,11,-1,13,15,17,19,21,23,-1,25,27,-1,29,-1,31,-1,33,35,-1,37,39,-1,41,43,-1,45,-1,-1,-1,-1,-1,-1,-1,-1,-1,-1,-1,-1,-1,-1,-1],"loss_changes":[1.2046952E3,1.6079102E1,6.8771185E2,7.2474365E0,0E0,4.711543E2,9.885773E0,0E0,3.8707275E0,4.385835E2,1.1860504E1,8.197235E0,4.399524E0,2.9979248E0,0E0,4.068136E2,7.2051697E0,0E0,1.0929871E1,0E0,7.054413E0,0E0,7.068989E-1,2.8928223E0,0E0,4.056173E2,1.6039719E1,0E0,8.731476E0,8.171661E0,0E0,5.303253E0,0E0,0E0,0E0,0E0,0E0,0E0,0E0,0E0,0E0,0E0,0E0,0E0,0E0,0E0,0E0],"parents":[2147483647,0,0,1,1,2,2,3,3,5,5,6,6,8,8,9,9,10,10,11,11,12,12,13,13,15,15,16,16,18,18,20,20,22,22,23,23,25,25,26,26,28,28,29,29,31,31],"right_children":[2,4,6,8,-1,10,12,-1,14,16,18,20,22,24,-1,26,28,-1,30,-1,32,-1,34,36,-1,38,40,-1,42,44,-1,46,-1,-1,-1,-1,-1,-1,-1,-1,-1,-1,-1,-1,-1,-1,-1],"split_conditions":[7.10936E-1,3.1638393E-1,3.786114E-2,3.5952726E-1,-3.0879655E-1,8.780236E-2,2.0472395E-1,-2.5328124E-1,3.5740685E-1,9.286217E-2,1.0138398E0,4.6095353E-1,4.789707E-2,7.6111324E-2,-1.06438175E-1,7.4816205E-2,4.4286245E-1,-2.8472975E-1,1.8754666E-1,-2.6519623E-1,3.3437547E-1,-3.0031773E-1,1.0582355E-1,3.4278822E-1,-8.196285E-2,9.9443203E-1,5.048487E-1,3.8493568E-1,3.238608E-1,1.9089414E-1,-3.362511E-1,5.9303075E-1,-2.5601247E-1,2.4211046E-1,-2.2332696E-2,-6.505304E-2,3.471642E-1,4.4304347E-1,-1.8996204E-1,-2.8056136E-1,3.2871538E-1,-4.3066815E-2,6.5086764E-1,3.9385653E-1,-2.1332376E-1,-1.4653231E-1,3.410852E-1],"split_indices":[889,1060,894,2534,0,929,1060,0,1836,1141,3833,4785,1020,4493,0,928,3415,0,2176,0,1059,0,1832,2704,0,2122,3090,0,2289,3821,0,3062,0,0,0,0,0,0,0,0,0,0,0,0,0,0,0],"split_type":[0,0,0,0,0,0,0,0,0,0,0,0,0,0,0,0,0,0,0,0,0,0,0,0,0,0,0,0,0,0,0,0,0,0,0,0,0,0,0,0,0,0,0,0,0,0,0],"sum_hessian":[4.584358E3,8.3259576E2,3.7517622E3,8.2990845E2,2.6873455E0,3.376424E3,3.7533807E2,1.1580596E0,8.2875037E2,3.1979702E3,1.7845401E2,3.698664E2,5.471679E0,8.274594E2,1.2909527E0,3.1198442E3,7.812595E1,1.7626481E0,1.7669136E2,1.3611373E0,3.6850525E2,2.502187E0,2.9694922E0,8.263334E2,1.1260512E0,2.956297E3,1.6354703E2,2.099361E1,5.7132347E1,1.7551254E2,1.1788138E0,3.673792E2,1.1260501E0,1.8659301E0,1.1035621E0,1.243898E0,8.250895E2,9.317541E1,2.8631218E3,3.2641423E0,1.6028288E2,1.5567002E0,5.5575645E1,1.7407884E2,1.4337032E0,1.5055022E0,3.658737E2],"tree_param":{"num_deleted":"0","num_feature":"5000","num_nodes":"47","size_leaf_vector":"1"}},{"base_weights":[5.186945E-2,1.0814855E0,-1.3922913E-1,1.0900964E0,-2.7308944E-1,-4.3609068E-1,-3.2826114E-2,-2.2364147E-1,1.09431E0,-4.3245503E-1,6.533898E-2,1.0979404E0,-9.830537E-2,-1.4453152E0,1.6760124E-1,-1.04740955E-1,1.1010334E0,-6.3317984E-2,-4.354745E-1,-1.4057307E0,2.6253107E-1,3.3116943E-1,-9.987468E-2,2.3213764E-1,-4.2836705E-1,-3.6457688E-1,1.0032873E-1],"categories":[],"categories_nodes":[],"categories_segments":[],"categories_sizes":[],"default_left":[0,1,0,0,0,0,0,0,1,0,0,0,0,0,0,0,1,0,0,0,0,0,0,0,0,0,0],"id":4,"left_children":[1,3,5,7,-1,-1,9,-1,11,-1,13,15,-1,17,19,-1,21,-1,-1,23,25,-1,-1,-1,-1,-1,-1],"loss_changes":[8.100627E2,1.20460205E1,4.8564395E2,5.782837E0,0E0,0E0,4.4450226E2,0E0,3.6694946E0,0E0,4.6451358E2,3.2476196E0,0E0,1.1681519E0,4.2090775E2,0E0,2.9906616E0,0E0,0E0,8.850647E0,2.82638E2,0E0,0E0,0E0,0E0,0E0,0E0],"parents":[2147483647,0,0,1,1,2,2,3,3,6,6,8,8,10,10,11,11,13,13,14,14,16,16,19,19,20,20],"right_children":[2,4,6,8,-1,-1,10,-1,12,-1,14,16,-1,18,20,-1,22,-1,-1,24,26,-1,-1,-1,-1,-1,-1],"split_conditions":[7.10936E-1,3.1638393E-1,1.1576355E0,3.5952726E-1,-2.7308944E-1,-4.3609068E-1,5.013628E-1,-2.2364147E-1,1.8735114E-1,-4.3245503E-1,1.6974132E0,4.4828567E-1,-9.830537E-2,8.5583396E-2,2.8633773E-1,-1.04740955E-1,2.7253592E-1,-6.3317984E-2,-4.354745E-1,1.10291936E-1,1.231499E-1,3.3116943E-1,-9.987468E-2,2.3213764E-1,-4.2836705E-1,-3.6457688E-1,1.0032873E-1],"split_indices":[889,1060,2518,2534,0,0,1320,0,2687,0,821,2564,0,3135,4140,0,3833,0,0,653,3769,0,0,0,0,0,0],"split_type":[0,0,0,0,0,0,0,0,0,0,0,0,0,0,0,0,0,0,0,0,0,0,0,0,0,0,0],"sum_hessian":[4.1152817E3,6.435035E2,3.4717783E3,6.4118427E2,2.3192255E0,2.5904984E2,3.2127285E3,1.0656292E0,6.4011865E2,2.0840378E2,3.0043247E3,6.387159E2,1.4027631E0,1.8964777E2,2.814677E3,1.1236653E0,6.375922E2,1.1331737E0,1.8851459E2,1.5937907E2,2.6552979E3,6.365507E2,1.0414968E0,1.2627099E0,1.5811636E2,1.2245535E2,2.5328425E3],"tree_param":{"num_deleted":"0","num_feature":"5000","num_nodes":"27","size_leaf_vector":"1"}},{"base_weights":[3.673196E-2,1.038701E0,-1.1335994E-1,1.0478266E0,-2.452072E-1,-2.1406002E-1,1.0082747E0,1.0525521E0,-1.5644044E-1,1.7347301E0,-2.6914287E-1,1.0245564E0,-2.5575927E-1,1.0568389E0,-1.03536054E-1,-2.5895655E-1,1.7919201E0,1.4256527E0,-3.2977635E-1,1.0373254E0,-2.683312E-1,1.0606258E0,-1.0801317E-1,1.8609066E0,-4.826171E-1,-5.1916116E-1,1.499395E0,1.2231032E0,-4.027752E-1,-2.4516925E-1,1.0493073E0,-1.0131339E-1,3.1931815E-1,3.5360435E-1,6.0981804E-1,1.0507783E-1,-3.1580898E-1,4.737379E-1,-2.581223E-1,3.9681974E-1,-1.3656946E-1,-1.4250912E-1,3.781567E-1,-1.377091E-1,3.1788728E-1],"categories":[],"categories_nodes":[],"categories_segments":[],"categories_sizes":[],"default_left":[0,1,1,1,0,0,1,1,0,0,0,1,0,1,0,0,1,0,0,0,0,0,0,0,0,0,1,1,1,0,0,0,0,0,0,0,0,0,0,0,0,0,0,0,0],"id":5,"left_children":[1,3,5,7,-1,9,11,13,-1,15,17,19,-1,21,-1,-1,23,25,27,29,-1,31,-1,33,35,-1,37,39,41,-1,43,-1,-1,-1,-1,-1,-1,-1,-1,-1,-1,-1,-1,-1,-1],"loss_changes":[5.70237E2,9.223511E0,3.727215E2,4.19751E0,0E0,3.25414E2,9.110504E0,3.3057861E0,0E0,1.39296875E1,3.0308057E2,7.543152E0,0E0,3.0089722E0,0E0,0E0,1.374527E1,2.6312042E1,3.228709E2,6.82724E0,0E0,2.9337158E0,0E0,6.9430237E0,1.8900974E0,0E0,2.0194702E1,2.1993927E1,3.2712714E2,0E0,4.646881E0,0E0,0E0,0E0,0E0,0E0,0E0,0E0,0E0,0E0,0E0,0E0,0E0,0E0,0E0],"parents":[2147483647,0,0,1,1,2,2,3,3,5,5,6,6,7,7,9,9,10,10,11,11,13,13,16,16,17,17,18,18,19,19,21,21,23,23,24,24,26,26,27,27,28,28,30,30],"right_children":[2,4,6,8,-1,10,12,14,-1,16,18,20,-1,22,-1,-1,24,26,28,30,-1,32,-1,34,36,-1,38,40,42,-1,44,-1,-1,-1,-1,-1,-1,-1,-1,-1,-1,-1,-1,-1,-1],"split_conditions":[7.10936E-1,3.1638393E-1,3.9909534E-2,5.536991E-2,-2.452072E-1,2.00001E0,2.1850044E-1,3.5740685E-1,-1.5644044E-1,1.866827E-1,3.0639672E-1,3.7119448E-1,-2.5575927E-1,1.751481E-1,-1.03536054E-1,-2.5895655E-1,2.2797227E-1,2.6965788E-1,2.00001E0,4.6095353E-1,-2.683312E-1,3.4278822E-1,-1.0801317E-1,2.475531E-1,3.2117584E-1,-5.1916116E-1,2.7652258E-1,2.0373759E-1,8.572279E-2,-2.4516925E-1,5.9303075E-1,-1.0131339E-1,3.1931815E-1,3.5360435E-1,6.0981804E-1,1.0507783E-1,-3.1580898E-1,4.737379E-1,-2.581223E-1,3.9681974E-1,-1.3656946E-1,-1.4250912E-1,3.781567E-1,-1.377091E-1,3.1788728E-1],"split_indices":[889,1060,894,3232,0,3870,4956,1836,0,305,4521,1332,0,318,0,0,3094,2873,2176,4785,0,2704,0,958,45,0,4432,1832,4847,0,3062,0,0,0,0,0,0,0,0,0,0,0,0,0,0],"split_type":[0,0,0,0,0,0,0,0,0,0,0,0,0,0,0,0,0,0,0,0,0,0,0,0,0,0,0,0,0,0,0,0,0,0,0,0,0,0,0,0,0,0,0,0,0],"sum_hessian":[3.7900032E3,4.9299487E2,3.2970083E3,4.9101617E2,1.9786885E0,3.026132E3,2.7087622E2,4.8987036E2,1.1458163E0,8.234469E1,2.9437874E3,2.6897217E2,1.9040569E0,4.886156E2,1.2547587E0,1.4701042E0,8.087458E1,1.0090246E2,2.8428848E3,2.6765063E2,1.3215117E0,4.875639E2,1.0516855E0,7.8670364E1,2.204216E0,1.7907469E0,9.911171E1,1.2693275E2,2.7159521E3,1.2867241E0,2.6636392E2,1.0720985E0,4.8649182E2,1.740851E1,6.1261856E1,1.0523481E0,1.1518677E0,9.619246E1,2.9192553E0,1.20020004E2,6.9127445E0,2.6035652E3,1.1238686E2,1.5140558E0,2.6484988E2],"tree_param":{"num_deleted":"0","num_feature":"5000","num_nodes":"45","size_leaf_vector":"1"}},{"base_weights":[3.7452474E-2,1.0034375E0,-8.010911E-2,1.0132321E0,-2.2210364E-1,-3.902991E-1,-7.470481E-4,1.0226418E0,-1.8810198E-1,-1.2341521E0,7.9753384E-2,1.0300562E0,-1.6914088E-1,1.749312E-1,-2.3575775E-1,4.46745E-1,-1.259679E0,-1.2472973E0,1.6772944E-1,1.0357926E0,-1.0014123E-1,1.720277E-1,-2.548881E-1,2.671827E-1,-1.2771784E0,-3.7568763E-1,-7.668366E-2,-4.155155E-1,2.2930536E-1,-1.1816297E-1,3.1231886E-1,-3.8658354E-1,8.269862E-2,5.398954E-2,5.333399E-1],"categories":[],"categories_nodes":[],"categories_segments":[],"categories_sizes":[],"default_left":[0,1,0,1,0,0,0,1,0,0,0,1,0,0,0,0,0,1,0,0,0,0,0,0,1,0,0,0,1,0,0,0,0,0,0],"id":6,"left_children":[1,3,5,7,-1,-1,9,11,13,15,17,19,21,-1,-1,-1,23,25,27,29,-1,-1,-1,-1,31,-1,-1,-1,33,-1,-1,-1,-1,-1,-1],"loss_changes":[3.9443863E2,7.186493E0,3.0005103E2,4.433197E0,0E0,0E0,2.8890698E2,3.4649353E0,2.1917093E0,1.4268982E1,3.191052E2,3.2423096E0,2.084684E0,0E0,0E0,0E0,7.803772E0,5.2163696E-1,2.4533139E2,3.1898193E0,0E0,0E0,0E0,0E0,3.482483E0,0E0,0E0,0E0,1.8806313E2,0E0,0E0,0E0,0E0,0E0,0E0],"parents":[2147483647,0,0,1,1,2,2,3,3,6,6,7,7,8,8,9,9,10,10,11,11,12,12,16,16,17,17,18,18,19,19,24,24,28,28],"right_children":[2,4,6,8,-1,-1,10,12,14,16,18,20,22,-1,-1,-1,24,26,28,30,-1,-1,-1,-1,32,-1,-1,-1,34,-1,-1,-1,-1,-1,-1],"split_conditions":[7.10936E-1,3.1638393E-1,6.7594004E-1,2.3820795E-1,-2.2210364E-1,-3.902991E-1,7.538568E-1,9.604619E-2,2.645682E-1,3.519718E-1,8.487016E-1,1.8735114E-1,1.7553343E-1,1.749312E-1,-2.3575775E-1,4.46745E-1,1.214328E0,1.3413142E-1,8.670088E-1,4.6007636E-1,-1.0014123E-1,1.720277E-1,-2.548881E-1,2.671827E-1,1.1409624E-1,-3.7568763E-1,-7.668366E-2,-4.155155E-1,8.393536E-2,-1.1816297E-1,3.1231886E-1,-3.8658354E-1,8.269862E-2,5.398954E-2,5.333399E-1],"split_indices":[889,1060,3438,3833,0,0,451,294,556,327,821,2687,1451,0,0,0,3919,1832,936,2564,0,0,0,0,3555,0,0,0,1118,0,0,0,0,0,0],"split_type":[0,0,0,0,0,0,0,0,0,0,0,0,0,0,0,0,0,0,0,0,0,0,0,0,0,0,0,0,0,0,0,0,0,0,0],"sum_hessian":[3.4716025E3,3.75841E2,3.0957615E3,3.7415833E2,1.6826729E0,1.8801338E2,2.907748E3,3.7139804E2,2.7602923E0,1.7727402E2,2.730474E3,3.692366E2,2.1614215E0,1.2159845E0,1.5443078E0,1.1137927E0,1.7616023E2,1.689417E2,2.5615325E3,3.6792963E2,1.3069689E0,1.1087979E0,1.0526236E0,1.0192857E0,1.7514095E2,1.6783359E2,1.1081072E0,9.6883934E1,2.4646484E3,1.0805051E0,3.6684912E2,1.7402974E2,1.1112044E0,2.3896233E3,7.50252E1],"tree_param":{"num_deleted":"0","num_feature":"5000","num_nodes":"35","size_leaf_vector":"1"}},{"base_weights":[2.544321E-2,1.0076361E0,-7.115033E-2,9.55044E-1,2.6154804E0,-1.6194955E-1,9.6394515E-1,9.916448E-1,-8.251472E-1,2.3635639E-1,8.7174255E-1,-2.3365737E-1,1.1475213E0,1.0207723E0,-1.76377E-2,-4.6020815E-1,1.0125974E0,-3.7431335E-1,8.4755436E-2,-3.1067643E-1,1.0594871E0,1.1694168E0,-2.292296E-1,1.040874E0,-7.520646E-1,-1.2837906E0,3.261242E-1,1.0346339E0,-3.7667516E-1,-3.6927783E-1,1.542612E0,-5.888651E-1,1.1153996E0,-1.9318639E-1,1.1928066E0,1.061837E0,-6.7987025E-1,-3.016075E-1,-3.9656505E-2,-4.7348756E-1,-1.0044534E-1,7.1491843E-1,-3.1563208E-1,-2.7277303E-1,3.1836507E-1,-1.34653E-1,3.2728955E-1,8.195519E-2,4.6797115E-1,-4.9089667E-1,3.4605032E-1,3.6194336E-1,-9.500896E-2,3.2254735E-1,-2.6472276E-1,-4.9741438E-1,1.8311745E-1,-1.8806875E-1,2.881486E-1],"categories":[],"categories_nodes":[],"categories_segments":[],"categories_sizes":[],"default_left":[0,1,1,1,1,1,1,0,0,0,0,1,1,1,0,0,1,0,0,1,0,0,0,1,0,0,1,0,0,1,0,0,0,0,1,1,1,0,0,0,0,0,0,0,0,0,0,0,0,0,0,0,0,0,0,0,0,0,0],"id":7,"left_children":[1,3,5,7,9,11,13,15,17,-1,-1,19,21,23,25,-1,27,-1,-1,29,31,33,-1,35,37,39,41,43,-1,45,47,-1,49,-1,51,53,55,-1,-1,-1,-1,57,-1,-1,-1,-1,-1,-1,-1,-1,-1,-1,-1,-1,-1,-1,-1,-1,-1],"loss_changes":[3.0776733E2,2.2063446E1,2.777677E2,1.9246826E1,2.2870445E0,2.5533676E2,1.3313522E1,1.6243408E1,3.2749662E0,0E0,0E0,2.56911E2,6.8035583E0,8.812759E0,6.523988E0,0E0,1.5089905E1,0E0,0E0,2.647159E2,2.6699356E1,6.7059326E0,0E0,8.773865E0,3.549044E-1,3.6523914E-1,7.0908546E0,1.5113403E1,0E0,2.745034E2,1.2144928E0,0E0,1.6884735E1,0E0,3.2416077E0,6.67041E0,5.172327E0,0E0,0E0,0E0,0E0,3.8386288E0,0E0,0E0,0E0,0E0,0E0,0E0,0E0,0E0,0E0,0E0,0E0,0E0,0E0,0E0,0E0,0E0,0E0],"parents":[2147483647,0,0,1,1,2,2,3,3,4,4,5,5,6,6,7,7,8,8,11,11,12,12,13,13,14,14,16,16,19,19,20,20,21,21,23,23,24,24,25,25,26,26,27,27,29,29,30,30,32,32,34,34,35,35,36,36,41,41],"right_children":[2,4,6,8,10,12,14,16,18,-1,-1,20,22,24,26,-1,28,-1,-1,30,32,34,-1,36,38,40,42,44,-1,46,48,-1,50,-1,52,54,56,-1,-1,-1,-1,58,-1,-1,-1,-1,-1,-1,-1,-1,-1,-1,-1,-1,-1,-1,-1,-1,-1],"split_conditions":[6.000101E-1,6.122613E-2,7.4816205E-2,7.095033E-2,3.8911827E-2,3.3181474E-2,1.1177452E-1,4.815212E-1,3.3491018E-1,2.3635639E-1,8.7174255E-1,9.753886E-2,2.69162E-1,1.4870393E-1,1.0417691E-1,-4.6020815E-1,3.7377667E-1,-3.7431335E-1,8.4755436E-2,1.9639774E-1,1.4510822E0,4.2959064E-1,-2.292296E-1,1.0570581E-1,1.8258117E-1,1.4080156E-1,8.963358E-2,1.2140448E-1,-3.7667516E-1,9.942748E-2,2.7614626E-1,-5.888651E-1,1.6110734E0,-1.9318639E-1,1.160986E-1,4.0140167E-1,5.918621E-2,-3.016075E-1,-3.9656505E-2,-4.7348756E-1,-1.0044534E-1,2.702332E-1,-3.1563208E-1,-2.7277303E-1,3.1836507E-1,-1.34653E-1,3.2728955E-1,8.195519E-2,4.6797115E-1,-4.9089667E-1,3.4605032E-1,3.6194336E-1,-9.500896E-2,3.2254735E-1,-2.6472276E-1,-4.9741438E-1,1.8311745E-1,-1.8806875E-1,2.881486E-1],"split_indices":[537,2714,928,4761,623,3415,4794,1354,3191,0,0,4847,821,2873,966,0,2346,0,0,2333,3232,2595,0,3969,2873,3812,4370,131,0,2122,131,0,955,0,4561,758,653,0,0,0,0,4847,0,0,0,0,0,0,0,0,0,0,0,0,0,0,0,0,0],"split_type":[0,0,0,0,0,0,0,0,0,0,0,0,0,0,0,0,0,0,0,0,0,0,0,0,0,0,0,0,0,0,0,0,0,0,0,0,0,0,0,0,0,0,0,0,0,0,0,0,0,0,0,0,0,0,0,0,0,0,0],"sum_hessian":[3.2422205E3,2.8946094E2,2.9527595E3,2.8183615E2,7.624777E0,2.715406E3,2.3735355E2,2.7659238E2,5.243792E0,1.5542688E0,6.070508E0,2.575207E3,1.4019914E2,2.2432658E2,1.3026975E1,1.6815474E0,2.7491083E2,3.7042298E0,1.5395623E0,2.4311675E3,1.440394E2,1.3899536E2,1.2037809E0,2.2221977E2,2.1068013E0,2.1977243E0,1.082925E1,2.7280423E2,2.1065764E0,2.357426E3,7.37416E1,1.9967718E0,1.4204262E2,1.4321445E0,1.3756322E2,2.1992348E2,2.2962925E0,1.0541751E0,1.052626E0,1.1711235E0,1.026601E0,8.8219E0,2.0073497E0,3.2323756E0,2.6957187E2,2.236269E3,1.2115689E2,1.2167377E0,7.2524864E1,1.3670449E0,1.4067558E2,1.3652745E2,1.0357591E0,2.1887091E2,1.0525684E0,1.1439724E0,1.1523201E0,1.1245725E0,7.697328E0],"tree_param":{"num_deleted":"0","num_feature":"5000","num_nodes":"59","size_leaf_vector":"1"}},{"base_weights":[2.8234893E-2,-3.5114658E-1,9.226724E-2,-1.1644597E0,1.5619299E-1,3.052403E-1,-3.5824788E-1,-1.139141E0,2.082675E-1,-5.216315E-2,-3.4421766E-1,-1.1480814E0,2.603099E-1,1.6024676E-1,-3.5459232E-1,1.6947209E0,2.186123E-1,3.0123368E-1,5.595824E-1,5.112039E-2,4.4852337E-1],"categories":[],"categories_nodes":[],"categories_segments":[],"categories_sizes":[],"default_left":[0,0,0,0,0,0,0,0,0,0,0,0,0,0,0,0,1,0,0,0,0],"id":8,"left_children":[1,-1,3,5,7,-1,-1,9,11,-1,-1,13,15,-1,-1,17,19,-1,-1,-1,-1],"loss_changes":[2.2648256E2,0E0,2.251751E2,1.0007538E1,1.8006445E2,0E0,0E0,6.223297E-1,1.8126749E2,0E0,0E0,6.0432663E0,1.4735341E2,0E0,0E0,6.3273315E0,1.4751443E2,0E0,0E0,0E0,0E0],"parents":[2147483647,0,0,2,2,3,3,4,4,7,7,8,8,11,11,12,12,15,15,16,16],"right_children":[2,-1,4,6,8,-1,-1,10,12,-1,-1,14,16,-1,-1,18,20,-1,-1,-1,-1],"split_conditions":[1.1576355E0,-3.5114658E-1,9.594471E-1,5.645439E-2,1.6974132E0,3.052403E-1,-3.5824788E-1,7.650419E-2,2.8633773E-1,-5.216315E-2,-3.4421766E-1,1.6347976E-1,1.214328E0,1.6024676E-1,-3.5459232E-1,2.9306728E-1,4.7306743E-2,3.0123368E-1,5.595824E-1,5.112039E-2,4.4852337E-1],"split_indices":[2518,0,4852,303,821,0,0,1020,4140,0,0,1451,3919,0,0,958,3002,0,0,0,0],"split_type":[0,0,0,0,0,0,0,0,0,0,0,0,0,0,0,0,0,0,0,0,0],"sum_hessian":[2.948234E3,1.4862402E2,2.7996099E3,1.3468086E2,2.664929E3,1.3619959E0,1.3331886E2,1.0218711E2,2.562742E3,1.0531845E0,1.0113393E2,9.3919395E1,2.4688225E3,1.5633657E0,9.2356026E1,6.86203E1,2.4002021E3,1.4954334E1,5.3665966E1,2.3139402E3,8.626202E1],"tree_param":{"num_deleted":"0","num_feature":"5000","num_nodes":"21","size_leaf_vector":"1"}},{"base_weights":[1.609648E-2,-5.470005E-2,1.000418E0,1.7347416E0,-9.264557E-2,1.0459166E0,-9.528977E-1,3.3635518E-1,1.963255E0,-1.5282378E-1,1.0551506E0,1.0669094E0,-4.0472874E-1,2.726017E-2,-4.7692445E-1,5.9170578E-2,2.016507E0,-1.8901621E-1,1.7270858E0,1.0953901E0,-2.7644518E-1,1.0901601E0,-4.5909032E-1,2.505661E-1,2.1169891E0,-2.5793117E-1,8.574673E-1,1.4044617E0,8.9091367E-1,1.158901E0,1.16995975E-1,-1.4447246E-1,1.1057706E0,1.829498E-1,-3.6963424E-1,6.5513045E-1,2.0326276E-1,5.001549E-1,-8.921955E-2,2.725673E-1,-2.0625627E-1,4.417245E-1,-4.7990184E-2,-8.975835E-2,3.5291627E-1,-4.308626E-1,1.7715344E-1,3.3688006E-1,-5.7154126E-2],"categories":[],"categories_nodes":[],"categories_segments":[],"categories_sizes":[],"default_left":[1,0,1,0,1,1,0,0,0,1,1,1,0,0,0,0,0,1,0,1,0,0,0,0,1,0,1,1,0,0,0,0,1,0,0,0,0,0,0,0,0,0,0,0,0,0,0,0,0],"id":9,"left_children":[1,3,5,7,9,11,13,-1,15,17,19,21,-1,-1,-1,-1,23,25,27,29,-1,31,33,-1,35,37,39,41,-1,43,45,-1,47,-1,-1,-1,-1,-1,-1,-1,-1,-1,-1,-1,-1,-1,-1,-1,-1],"loss_changes":[1.9602144E2,1.7835933E2,1.7770569E1,5.4464417E0,1.7773454E2,1.0736816E1,3.348096E0,0E0,3.2146912E0,1.6658757E2,1.1206146E1,7.024399E0,0E0,0E0,0E0,0E0,2.6449585E0,1.731882E2,1.4373001E1,7.6999664E0,0E0,4.983444E0,3.6130147E0,0E0,1.7514648E0,1.7152193E2,1.2339638E1,4.3410034E0,0E0,3.3682556E0,7.3193135E0,0E0,4.2169952E0,0E0,0E0,0E0,0E0,0E0,0E0,0E0,0E0,0E0,0E0,0E0,0E0,0E0,0E0,0E0,0E0],"parents":[2147483647,0,0,1,1,2,2,3,3,4,4,5,5,6,6,8,8,9,9,10,10,11,11,16,16,17,17,18,18,19,19,21,21,22,22,24,24,25,25,26,26,27,27,29,29,30,30,32,32],"right_children":[2,4,6,8,10,12,14,-1,16,18,20,22,-1,-1,-1,-1,24,26,28,30,-1,32,34,-1,36,38,40,42,-1,44,46,-1,48,-1,-1,-1,-1,-1,-1,-1,-1,-1,-1,-1,-1,-1,-1,-1,-1],"split_conditions":[8.780236E-2,9.894899E-1,2.3385894E-1,3.416651E-1,3.259748E-2,1.851376E-1,1.2456439E-1,3.3635518E-1,2.070273E-1,1.0499297E-1,8.822432E-2,1.8694885E-1,-4.0472874E-1,2.726017E-2,-4.7692445E-1,5.9170578E-2,1.6404292E-1,3.979511E-2,5.088487E-1,2.0119879E-1,-2.7644518E-1,1.8820326E-1,1.5505448E-1,2.505661E-1,7.537144E-2,2.00001E0,2.0472395E-1,1.06036745E-1,8.9091367E-1,2.2424246E-1,1.252242E-1,-1.4447246E-1,4.1412836E-1,1.829498E-1,-3.6963424E-1,6.5513045E-1,2.0326276E-1,5.001549E-1,-8.921955E-2,2.725673E-1,-2.0625627E-1,4.417245E-1,-4.7990184E-2,-8.975835E-2,3.5291627E-1,-4.308626E-1,1.7715344E-1,3.3688006E-1,-5.7154126E-2],"split_indices":[929,4027,3833,3415,958,2176,1451,0,314,4170,509,785,0,0,0,0,894,894,4170,3094,0,2123,623,0,653,4817,1060,2582,0,704,3555,0,530,0,0,0,0,0,0,0,0,0,0,0,0,0,0,0,0],"split_type":[0,0,0,0,0,0,0,0,0,0,0,0,0,0,0,0,0,0,0,0,0,0,0,0,0,0,0,0,0,0,0,0,0,0,0,0,0,0,0,0,0,0,0,0,0,0,0,0,0],"sum_hessian":[2.811117E3,2.623377E3,1.8773987E2,5.354564E1,2.5698313E3,1.8392035E2,3.819518E0,1.6133549E1,3.741209E1,2.4426326E3,1.27198784E2,1.8287196E2,1.0483886E0,1.7722348E0,2.0472834E0,1.2327709E0,3.6179317E1,2.3973772E3,4.5255383E1,1.2509792E2,2.1008568E0,1.8040878E2,2.463175E0,3.5662315E0,3.2613087E1,2.2499622E3,1.474151E2,3.7618656E1,7.636725E0,1.1729913E2,7.7987933E0,1.48064E0,1.7892815E2,1.1223364E0,1.3408386E0,3.0673014E1,1.9400734E0,4.437193E1,2.20559E3,1.4309511E2,4.319999E0,3.6109028E1,1.5096318E0,1.1991528E0,1.1609998E2,1.347081E0,6.451712E0,1.7672205E2,2.2060935E0],"tree_param":{"num_deleted":"0","num_feature":"5000","num_nodes":"49","size_leaf_vector":"1"}},{"base_weights":[1.9164614E-2,-5.1105052E-2,8.830697E-1,1.3487023E0,-9.4442934E-2,9.118119E-1,-1.0835155E0,1.4075515E0,-3.16573E-1,1.2536036E0,-1.4332637E-1,9.321445E-1,-3.6348325E-1,-4.4911504E-1,-4.5588516E-2,1.4705008E0,-2.7040267E-1,-2.1730268E-1,1.2921954E0,-1.8880796E-1,1.4120295E0,9.5175785E-1,-3.112328E-1,-1.1324145E-1,1.5070562E0,1.3298035E0,-2.3505327E-1,-2.4424833E-1,1.1241366E0,1.4525518E0,-5.1003885E-2,9.707251E-1,-3.303269E-1,4.6205944E-1,-2.0355977E-2,5.21487E-1,3.5300475E-1,2.480541E-1,-9.347102E-2,4.0069202E-1,3.1920698E-2,4.4135666E-1,5.4698158E-2,2.9768762E-1,-2.6453704E-1],"categories":[],"categories_nodes":[],"categories_segments":[],"categories_sizes":[],"default_left":[1,0,1,1,0,1,0,1,0,0,1,1,0,0,0,0,0,0,1,1,1,1,0,0,1,1,0,0,1,1,0,1,0,0,0,0,0,0,0,0,0,0,0,0,0],"id":10,"left_children":[1,3,5,7,9,11,13,15,-1,17,19,21,-1,-1,-1,23,-1,-1,25,27,29,31,-1,-1,33,35,-1,37,39,41,-1,43,-1,-1,-1,-1,-1,-1,-1,-1,-1,-1,-1,-1,-1],"loss_changes":[1.6096878E2,1.4890144E2,1.2261948E1,1.1913269E1,1.5699435E2,9.640244E0,1.0553484E0,1.1845184E1,0E0,7.300293E0,1.6277863E2,8.551956E0,0E0,0E0,0E0,5.3541565E0,0E0,0E0,7.45401E0,1.6280948E2,4.438797E0,8.638657E0,0E0,0E0,3.740631E0,3.0240173E0,0E0,1.5480518E2,1.936979E1,1.2434998E0,0E0,8.592407E0,0E0,0E0,0E0,0E0,0E0,0E0,0E0,0E0,0E0,0E0,0E0,0E0,0E0],"parents":[2147483647,0,0,1,1,2,2,3,3,4,4,5,5,6,6,7,7,9,9,10,10,11,11,15,15,18,18,19,19,20,20,21,21,24,24,25,25,27,27,28,28,29,29,31,31],"right_children":[2,4,6,8,10,12,14,16,-1,18,20,22,-1,-1,-1,24,-1,-1,26,28,30,32,-1,-1,34,36,-1,38,40,42,-1,44,-1,-1,-1,-1,-1,-1,-1,-1,-1,-1,-1,-1,-1],"split_conditions":[7.4816205E-2,2.00001E0,2.8788832E-1,1.5229337E-1,2.00001E0,3.7377667E-1,1.774039E-1,2.633434E-1,-3.16573E-1,1.866827E-1,7.7645585E-2,4.4999605E-1,-3.6348325E-1,-4.4911504E-1,-4.5588516E-2,2.3509511E-1,-2.7040267E-1,-2.1730268E-1,2.3747294E-1,2.0277102E-1,2.8002387E-1,2.5583735E-1,-3.112328E-1,-1.1324145E-1,8.2295485E-2,4.987758E-2,-2.3505327E-1,6.000101E-1,5.699842E-2,1.5769751E-1,-5.1003885E-2,2.8494763E-1,-3.303269E-1,4.6205944E-1,-2.0355977E-2,5.21487E-1,3.5300475E-1,2.480541E-1,-9.347102E-2,4.0069202E-1,3.1920698E-2,4.4135666E-1,5.4698158E-2,2.9768762E-1,-2.6453704E-1],"split_indices":[928,733,2962,4521,3870,2346,928,2289,0,305,1141,2075,0,0,0,4583,0,0,3094,2176,2289,2289,0,0,1440,1451,0,537,1020,314,0,3090,0,0,0,0,0,0,0,0,0,0,0,0,0],"split_type":[0,0,0,0,0,0,0,0,0,0,0,0,0,0,0,0,0,0,0,0,0,0,0,0,0,0,0,0,0,0,0,0,0,0,0,0,0,0,0,0,0,0,0,0,0],"sum_hessian":[2.649855E3,2.4514E3,1.9845497E2,7.2711395E1,2.3786885E3,1.9612491E2,2.3300717E0,7.137852E1,1.3328805E0,8.237617E1,2.2963125E3,1.9482043E2,1.304467E0,1.1932979E0,1.1367738E0,6.9837585E1,1.5409276E0,1.236425E0,8.113975E1,2.2319253E3,6.438718E1,1.9341121E2,1.409235E0,1.17378E0,6.866381E1,8.004876E1,1.0909889E0,2.1422793E3,8.9645874E1,6.285896E1,1.5282152E0,1.9216284E2,1.2483566E0,6.727024E1,1.3935714E0,1.9002565E1,6.104619E1,1.26019226E2,2.0162601E3,7.396272E1,1.5683146E1,6.1794098E1,1.0648639E0,1.9041046E2,1.7523891E0],"tree_param":{"num_deleted":"0","num_feature":"5000","num_nodes":"45","size_leaf_vector":"1"}},{"base_weights":[2.0619221E-2,-3.398641E-1,7.020693E-2,-3.3329856E-1,1.1687954E-1,-3.5249597E-1,1.5839063E-1,-1.0720673E0,2.0471428E-1,-6.324729E-2,-3.240878E-1,-3.585426E-1,2.4460886E-1,-3.0893934E-1,8.543711E-2],"categories":[],"categories_nodes":[],"categories_segments":[],"categories_sizes":[],"default_left":[0,0,0,0,0,0,0,0,0,0,0,0,0,0,0],"id":11,"left_children":[1,-1,3,-1,5,-1,7,9,11,-1,-1,-1,13,-1,-1],"loss_changes":[1.425857E2,0E0,1.3187053E2,0E0,1.23512566E2,0E0,1.2727119E2,3.4627533E-1,1.2030527E2,0E0,0E0,0E0,1.073302E2,0E0,0E0],"parents":[2147483647,0,0,2,2,4,4,6,6,7,7,8,8,12,12],"right_children":[2,-1,4,-1,6,-1,8,10,12,-1,-1,-1,14,-1,-1],"split_conditions":[6.7594004E-1,-3.398641E-1,5.013628E-1,-3.3329856E-1,8.670088E-1,-3.5249597E-1,1.6974132E0,8.3692424E-2,5.4063046E-1,-6.324729E-2,-3.240878E-1,-3.585426E-1,3.208874E-1,-3.0893934E-1,8.543711E-2],"split_indices":[3438,0,1320,0,936,0,821,1020,3157,0,0,0,4140,0,0],"split_type":[0,0,0,0,0,0,0,0,0,0,0,0,0,0,0],"sum_hessian":[2.4903926E3,1.0174621E2,2.3886462E3,8.9927765E1,2.2987185E3,7.0714294E1,2.2280044E3,8.003214E1,2.1479722E3,1.0090476E0,7.9023094E1,5.8716545E1,2.0892556E3,6.310708E1,2.0261486E3],"tree_param":{"num_deleted":"0","num_feature":"5000","num_nodes":"15","size_leaf_vector":"1"}},{"base_weights":[6.724187E-3,1.116149E0,-4.170202E-2,1.1443715E0,-2.317692E-1,1.3565723E0,-7.9600036E-2,1.1723758E0,-2.3729911E-1,1.8938855E0,1.216337E0,-1.19054854E-1,1.3410021E0,1.193583E0,-1.1846335E-1,2.0619295E0,9.1651365E-2,-2.321819E-2,1.245005E0,-1.5998308E-1,3.8830516E-1,-3.4040573E-1,1.4433914E0,-6.3153796E-2,1.2124752E0,2.086777E-1,6.5600765E-1,1.2679236E0,4.9513906E-2,-2.1590135E-1,8.7148476E-1,3.211585E-1,1.5600967E0,3.674351E-1,1.8574983E-2,3.033319E-1,4.1854963E-1,6.879022E-1,-7.206728E-2,-3.79505E-1,2.845545E-1,3.3799934E-1,5.347025E-1],"categories":[],"categories_nodes":[],"categories_segments":[],"categories_sizes":[],"default_left":[0,1,0,1,0,0,1,1,0,1,0,1,0,0,0,0,0,0,1,1,0,0,0,0,1,0,0,0,0,0,0,0,0,0,0,0,0,0,0,0,0,0,0],"id":12,"left_children":[1,3,5,7,-1,9,11,13,-1,15,17,19,21,23,-1,25,-1,-1,27,29,-1,-1,31,-1,33,-1,-1,35,-1,37,39,-1,41,-1,-1,-1,-1,-1,-1,-1,-1,-1,-1],"loss_changes":[1.27806885E2,6.1876144E0,1.2090479E2,6.2623444E0,0E0,2.2331085E0,1.2460818E2,3.7096558E0,0E0,2.2171211E0,1.9708862E0,1.25231285E2,1.6867363E1,2.8118591E0,0E0,9.36203E-2,0E0,0E0,1.016037E0,1.2138757E2,0E0,0E0,8.5961914E-1,0E0,1.273056E0,0E0,0E0,1.6854095E-1,0E0,1.2223614E2,1.9016403E1,0E0,2.0463486E0,0E0,0E0,0E0,0E0,0E0,0E0,0E0,0E0,0E0,0E0],"parents":[2147483647,0,0,1,1,2,2,3,3,5,5,6,6,7,7,9,9,10,10,11,11,12,12,13,13,15,15,18,18,19,19,22,22,24,24,27,27,29,29,30,30,32,32],"right_children":[2,4,6,8,-1,10,12,14,-1,16,18,20,22,24,-1,26,-1,-1,28,30,-1,-1,32,-1,34,-1,-1,36,-1,38,40,-1,42,-1,-1,-1,-1,-1,-1,-1,-1,-1,-1],"split_conditions":[3.320964E-1,7.318884E-2,9.1919684E-1,2.215144E-1,-2.317692E-1,1.3470998E-1,4.7306743E-2,1.15654096E-1,-2.3729911E-1,1.3451734E-1,1.860527E-1,2.09155E-1,4.9071574E-1,6.830521E-2,-1.1846335E-1,8.253927E-2,9.1651365E-2,-2.321819E-2,2.695772E-1,8.780236E-2,3.8830516E-1,-3.4040573E-1,3.0012146E-1,-6.3153796E-2,1.7504595E-1,2.086777E-1,6.5600765E-1,9.4517636E-1,4.9513906E-2,2.00001E0,1.0138398E0,3.211585E-1,1E0,3.674351E-1,1.8574983E-2,3.033319E-1,4.1854963E-1,6.879022E-1,-7.206728E-2,-3.79505E-1,2.845545E-1,3.3799934E-1,5.347025E-1],"split_indices":[914,3373,177,3584,0,1451,3002,4794,0,1906,1451,2333,4978,1300,0,1451,0,0,2122,929,0,0,958,0,4958,0,0,928,0,2796,3833,0,4847,0,0,0,0,0,0,0,0,0,0],"split_type":[0,0,0,0,0,0,0,0,0,0,0,0,0,0,0,0,0,0,0,0,0,0,0,0,0,0,0,0,0,0,0,0,0,0,0,0,0,0,0,0,0,0,0],"sum_hessian":[2.3770322E3,9.849534E1,2.2785369E3,9.743352E1,1.0618215E0,5.9208313E1,2.2193286E3,9.6432396E1,1.0011191E0,9.666391E0,4.9541924E1,2.1602476E3,5.908102E1,9.5380196E1,1.0522052E0,8.471961E0,1.1944311E0,1.0371622E0,4.850476E1,2.1003152E3,5.993238E1,1.9460104E0,5.713501E1,1.1316448E0,9.424855E1,1.2590287E0,7.212932E0,4.7326363E1,1.1783978E0,1.9930575E3,1.07257576E2,1.6045141E1,4.108987E1,9.318713E1,1.0614125E0,1.8643587E1,2.8682775E1,1.8240843E1,1.9748167E3,3.195839E0,1.0406174E2,1.59848795E1,2.510499E1],"tree_param":{"num_deleted":"0","num_feature":"5000","num_nodes":"43","size_leaf_vector":"1"}},{"base_weights":[1.1675142E-2,-2.9793162E-2,1.1788234E0,-6.4710975E-2,1.3055426E0,1.3371391E0,-6.695176E-1,-1.0064769E-1,1.2279925E0,1.342025E0,-9.4813414E-2,-7.575613E-3,1.3689255E0,2.5840917E-1,-3.3832812E-1,-1.3676508E-1,1.2114197E0,-3.4976408E-1,1.2989752E0,2.627083E-1,1.3841332E0,1.3890917E0,2.7331127E-2,1.4008173E0,-1.6847195E-1,-3.0607408E-1,1.3319287E0,6.417226E-1,1.5613415E0,-6.952373E-2,1.7384073E-1,8.543237E-1,1.4900601E0,1.4081616E0,4.3302733E-2,7.951681E-1,3.052198E-1,3.980942E-1,-5.984816E-2,4.1517907E-1,6.507845E-2,2.3362242E-1,-2.3150761E-1,4.8877904E-1,-8.29037E-2,1.5891407E-2,2.8025705E-1,2.6551148E-1,4.7035748E-1,3.2988933E-1,4.59742E-1],"categories":[],"categories_nodes":[],"categories_segments":[],"categories_sizes":[],"default_left":[1,1,1,1,1,0,0,1,0,0,0,0,1,0,0,0,0,0,0,1,0,1,0,0,0,0,1,1,1,0,0,0,0,0,0,0,0,0,0,0,0,0,0,0,0,0,0,0,0,0,0],"id":13,"left_children":[1,3,5,7,9,11,13,15,17,19,-1,-1,21,-1,-1,23,25,-1,27,29,31,33,-1,35,37,-1,39,41,43,-1,-1,45,47,49,-1,-1,-1,-1,-1,-1,-1,-1,-1,-1,-1,-1,-1,-1,-1,-1,-1],"loss_changes":[1.0999366E2,1.02426674E2,2.3712196E1,9.953527E1,3.7358627E0,3.159317E0,5.7544556E0,9.887474E1,1.1362549E1,2.133232E0,0E0,0E0,1.6909027E0,0E0,0E0,9.910843E1,1.6393417E1,0E0,8.785812E0,6.506996E-1,1.6812973E0,1.4432526E0,0E0,1.698957E1,9.249112E1,0E0,2.8002472E0,4.0658755E0,5.4266205E0,0E0,0E0,6.618843E-1,6.1408997E-1,9.3066406E-1,0E0,0E0,0E0,0E0,0E0,0E0,0E0,0E0,0E0,0E0,0E0,0E0,0E0,0E0,0E0,0E0,0E0],"parents":[2147483647,0,0,1,1,2,2,3,3,4,4,5,5,6,6,7,7,8,8,9,9,12,12,15,15,16,16,18,18,19,19,20,20,21,21,23,23,24,24,26,26,27,27,28,28,31,31,32,32,33,33],"right_children":[2,4,6,8,10,12,14,16,18,20,-1,-1,22,-1,-1,24,26,-1,28,30,32,34,-1,36,38,-1,40,42,44,-1,-1,46,48,50,-1,-1,-1,-1,-1,-1,-1,-1,-1,-1,-1,-1,-1,-1,-1,-1,-1],"split_conditions":[7.5201E-2,3.9830994E-2,1.3435535E-1,1.5238453E-1,1.6320306E-1,4.5431964E-2,3.863989E-1,8.508192E-2,1.2904505E-1,1.3559392E-1,-9.4813414E-2,-7.575613E-3,2.3434901E-1,2.5840917E-1,-3.3832812E-1,7.2926664E-1,5.5734422E-2,-3.4976408E-1,8.8354486E-1,4.068931E-2,3.8877574E-1,3.6024925E-1,2.7331127E-2,1.0646442E0,1.214328E0,-3.0607408E-1,1.0048924E-1,3.3058837E-1,1.08911596E-1,-6.952373E-2,1.7384073E-1,2.7564472E-1,7.10936E-1,2.0434119E-1,4.3302733E-2,7.951681E-1,3.052198E-1,3.980942E-1,-5.984816E-2,4.1517907E-1,6.507845E-2,2.3362242E-1,-2.3150761E-1,4.8877904E-1,-8.29037E-2,1.5891407E-2,2.8025705E-1,2.6551148E-1,4.7035748E-1,3.2988933E-1,4.59742E-1],"split_indices":[1015,950,714,2123,2150,1020,2738,1382,929,4560,0,0,1451,0,0,1872,303,0,894,3783,894,2176,0,937,3919,0,4370,2086,653,0,0,780,889,1015,0,0,0,0,0,0,0,0,0,0,0,0,0,0,0,0,0],"split_type":[0,0,0,0,0,0,0,0,0,0,0,0,0,0,0,0,0,0,0,0,0,0,0,0,0,0,0,0,0,0,0,0,0,0,0,0,0,0,0,0,0,0,0,0,0,0,0,0,0,0,0],"sum_hessian":[2.2708867E3,2.1939124E3,7.697434E1,2.1389329E3,5.4979603E1,7.115618E1,5.818158E0,2.0819768E3,5.6956093E1,5.3938496E1,1.0411066E0,1.627003E0,6.952918E1,1.1376907E0,4.6804676E0,2.027073E3,5.4903664E1,1.196013E0,5.576008E1,2.2971396E0,5.1641354E1,6.836321E1,1.1659658E0,4.008375E1,1.9869893E3,2.4303691E0,5.2473297E1,1.6891403E1,3.8868675E1,1.00178E0,1.2953596E0,1.0114967E1,4.1526386E1,6.720237E1,1.1608442E0,8.02229E0,3.2061462E1,3.9531776E1,1.9474575E3,4.990465E1,2.5686445E0,1.5807986E1,1.0834168E0,3.7592648E1,1.276028E0,1.0674809E0,9.047487E0,6.1414604E0,3.5384926E1,2.2128105E1,4.5074265E1],"tree_param":{"num_deleted":"0","num_feature":"5000","num_nodes":"51","size_leaf_vector":"1"}},{"base_weights":[1.4275481E-2,6.1885707E-2,-8.7920296E-1,-9.961146E-1,9.958931E-2,-1.0453132E0,2.0034684E-1,2.9199395E-1,-1.0431646E0,-4.1593006E-1,1.2879477E-1,2.368535E-1,-1.1110975E0,1.2884066E0,-5.994106E-1,8.3622806E-2,-1.0668743E0,1.6149357E-1,-1.226894E0,1.9262457E-1,-1.1504239E0,1.6355411E0,-8.786393E-2,-9.699255E-1,1.7615756E-1,-3.4561947E-2,-3.237819E-1,-3.558672E-1,1.9145446E-1,-1.3336174E0,4.6781054E-1,-3.4868196E-1,-1.5013449E-2,5.458357E-1,1.6366208E-1,4.173342E-2,-1.1702911E0,-2.686621E-1,6.8658434E-2,-1.1756669E-1,-4.042095E-1,-1.3970904E-1,3.1116456E-1,-1.0768292E-1,-3.801144E-1],"categories":[],"categories_nodes":[],"categories_segments":[],"categories_sizes":[],"default_left":[1,0,0,0,0,0,1,0,0,0,1,0,0,0,1,0,0,0,1,0,1,0,0,0,0,0,0,0,0,0,0,0,0,0,0,0,0,0,0,0,0,0,0,0,0],"id":14,"left_children":[1,3,5,7,9,11,13,-1,15,-1,17,-1,19,21,23,-1,25,27,29,-1,31,33,-1,35,-1,-1,-1,-1,37,39,41,-1,-1,-1,-1,-1,43,-1,-1,-1,-1,-1,-1,-1,-1],"loss_changes":[9.349988E1,8.333127E1,2.0150093E1,7.6766434E0,8.765682E1,1.2528786E1,1.4406041E1,0E0,2.5130768E0,0E0,8.786806E1,0E0,7.1924133E0,4.2967424E0,4.8397517E0,0E0,6.975708E-1,7.82389E1,9.069214E0,0E0,1.1402283E0,1.8110752E-1,0E0,1.8913178E0,0E0,0E0,0E0,0E0,7.708893E1,4.4052124E-2,2.3469663E0,0E0,0E0,0E0,0E0,0E0,7.0752144E-2,0E0,0E0,0E0,0E0,0E0,0E0,0E0,0E0],"parents":[2147483647,0,0,1,1,2,2,3,3,4,4,5,5,6,6,8,8,10,10,12,12,13,13,14,14,16,16,17,17,18,18,20,20,21,21,23,23,28,28,29,29,30,30,36,36],"right_children":[2,4,6,8,10,12,14,-1,16,-1,18,-1,20,22,24,-1,26,28,30,-1,32,34,-1,36,-1,-1,-1,-1,38,40,42,-1,-1,-1,-1,-1,44,-1,-1,-1,-1,-1,-1,-1,-1],"split_conditions":[1.5706646E-1,7.538568E-1,4.367163E-1,3.519718E-1,1.360232E0,3.7745672E-1,8.648903E-2,2.9199395E-1,2.3383221E-1,-4.1593006E-1,2.3868157E-2,2.368535E-1,7.10936E-1,2.3856315E-1,8.552599E-2,8.3622806E-2,1.6457392E-1,9.3536913E-1,6.5616325E-2,1.9262457E-1,5.7164352E-2,1.7790268E-1,-8.786393E-2,1.1924793E-1,1.7615756E-1,-3.4561947E-2,-3.237819E-1,-3.558672E-1,5.6729432E-2,1.5006697E-1,7.197739E-2,-3.4868196E-1,-1.5013449E-2,5.458357E-1,1.6366208E-1,4.173342E-2,6.959596E-2,-2.686621E-1,6.8658434E-2,-1.1756669E-1,-4.042095E-1,-1.3970904E-1,3.1116456E-1,-1.0768292E-1,-3.801144E-1],"split_indices":[2628,451,2582,327,3228,530,1451,0,1158,0,3670,0,889,2628,2619,0,3251,3270,1440,0,779,3555,0,1451,0,0,0,0,4645,2675,3670,0,0,0,0,0,3555,0,0,0,0,0,0,0,0],"split_type":[0,0,0,0,0,0,0,0,0,0,0,0,0,0,0,0,0,0,0,0,0,0,0,0,0,0,0,0,0,0,0,0,0,0,0,0,0,0,0,0,0,0,0,0,0],"sum_hessian":[2.1957163E3,2.0855173E3,1.1019891E2,7.088877E1,2.0146285E3,9.553124E1,1.4667671E1,1.1946824E0,6.969409E1,3.7935493E1,1.976693E3,2.9257572E0,9.2605484E1,5.954989E0,8.712683E0,1.0384752E0,6.865562E1,1.9309988E3,4.5694214E1,1.6954408E0,9.091004E1,4.8548985E0,1.1000901E0,6.778659E0,1.9340236E0,1.0153315E0,6.764028E1,4.115486E1,1.889844E3,4.318756E1,2.5066533E0,8.9885864E1,1.0241742E0,3.5814037E0,1.273495E0,1.0840545E0,5.6946044E0,6.210879E1,1.8277351E3,1.0459248E0,4.2141636E1,1.0186943E0,1.4879591E0,1.1085645E0,4.58604E0],"tree_param":{"num_deleted":"0","num_feature":"5000","num_nodes":"45","size_leaf_vector":"1"}},{"base_weights":[4.1089654E-3,9.5589966E-1,-3.8524505E-2,1.0170211E0,-4.0849566E-1,-6.909906E-2,1.3913921E0,1.1562971E0,-1.6232769E-1,-9.570922E-2,1.4992487E0,1.4470961E0,-7.128593E-2,1.1988233E0,-2.2532901E-1,-3.8261566E-1,2.5630483E-1,-1.2283869E-1,1.4226267E0,1.8323499E0,-7.263563E-1,1.0127082E0,1.6521622E0,4.13723E-2,1.2600926E0,5.591503E-1,-3.0880114E-1,8.156838E-1,-1.6749805E-1,1.7066805E0,1.1160423E0,1.930968E0,-3.684359E-2,-2.2113886E-2,-8.949725E-1,3.376619E-2,3.2033682E-1,1.3267818E-1,1.7204444E0,1.9891676E-1,-1.6208507E-1,3.8839778E-1,-6.4170636E-2,-1.3724245E-2,2.6028702E-1,-2.8936476E-1,1.5521154E-1,2.660314E-1,-6.076518E-1,2.3304956E-1,-6.534464E-2,2.8913113E-1,5.6797576E-1,2.3720512E-2,3.5134074E-1,6.077428E-1,-8.000804E-2,-5.8676135E-2,-3.276529E-1,2.4594331E-1,5.386582E-1],"categories":[],"categories_nodes":[],"categories_segments":[],"categories_sizes":[],"default_left":[0,1,1,1,0,1,1,1,0,1,1,0,0,0,0,0,0,0,0,1,0,0,0,0,1,0,0,1,0,0,0,1,0,0,0,0,0,0,0,0,0,0,0,0,0,0,0,0,0,0,0,0,0,0,0,0,0,0,0,0,0],"id":15,"left_children":[1,3,5,7,-1,9,11,13,15,17,19,21,-1,23,-1,-1,25,27,29,31,33,35,37,39,41,43,45,47,49,51,53,55,-1,-1,57,-1,-1,-1,59,-1,-1,-1,-1,-1,-1,-1,-1,-1,-1,-1,-1,-1,-1,-1,-1,-1,-1,-1,-1,-1,-1],"loss_changes":[8.6318275E1,1.4303307E1,8.911277E1,1.4876663E1,0E0,8.337912E1,4.2160187E0,7.3981247E0,5.1367607E0,8.099682E1,2.6043869E1,2.0148697E0,0E0,5.532051E0,0E0,0E0,1.5989187E0,8.0970566E1,1.1017303E0,5.882599E0,4.9039888E-1,6.6622543E-1,1.4318161E0,2.1636107E0,4.0855865E0,1.1185415E0,2.4234E0,1.9523872E1,8.7684746E1,3.9722824E-1,1.0210114E0,6.3623276E0,0E0,0E0,3.2814026E-1,0E0,0E0,0E0,2.0349884E-1,0E0,0E0,0E0,0E0,0E0,0E0,0E0,0E0,0E0,0E0,0E0,0E0,0E0,0E0,0E0,0E0,0E0,0E0,0E0,0E0,0E0,0E0],"parents":[2147483647,0,0,1,1,2,2,3,3,5,5,6,6,7,7,8,8,9,9,10,10,11,11,13,13,16,16,17,17,18,18,19,19,20,20,21,21,22,22,23,23,24,24,25,25,26,26,27,27,28,28,29,29,30,30,31,31,34,34,38,38],"right_children":[2,4,6,8,-1,10,12,14,16,18,20,22,-1,24,-1,-1,26,28,30,32,34,36,38,40,42,44,46,48,50,52,54,56,-1,-1,58,-1,-1,-1,60,-1,-1,-1,-1,-1,-1,-1,-1,-1,-1,-1,-1,-1,-1,-1,-1,-1,-1,-1,-1,-1,-1],"split_conditions":[3.0639672E-1,1.3241218E-1,1.8450162E-1,1.6111118E-1,-4.0849566E-1,1.0895847E-1,1.06036745E-1,7.442283E-2,2.969873E-1,1.8536513E-1,9.6065894E-2,9.191208E-1,-7.128593E-2,6.2937364E-2,-2.2532901E-1,-3.8261566E-1,2.0721716E-1,9.9443203E-1,1.8492997E-1,1.8629971E-1,7.332054E-2,1.560529E-1,3.0830398E-1,5.5413697E-2,1.8507227E-1,1.7138262E-1,8.189091E-2,2.1274833E-1,9.4517636E-1,3.0250198E-1,1.901204E-1,1.6796565E-1,-3.684359E-2,-2.2113886E-2,1.9828466E-1,3.376619E-2,3.2033682E-1,1.3267818E-1,2.9306728E-1,1.9891676E-1,-1.6208507E-1,3.8839778E-1,-6.4170636E-2,-1.3724245E-2,2.6028702E-1,-2.8936476E-1,1.5521154E-1,2.660314E-1,-6.076518E-1,2.3304956E-1,-6.534464E-2,2.8913113E-1,5.6797576E-1,2.3720512E-2,3.5134074E-1,6.077428E-1,-8.000804E-2,-5.8676135E-2,-3.276529E-1,2.4594331E-1,5.386582E-1],"split_indices":[4521,2873,4170,1832,0,2962,2582,2694,3969,3416,4794,3415,0,3066,0,0,1832,2122,1451,4847,4370,4128,4433,303,4794,1832,303,897,928,3415,1451,2176,0,0,2962,0,0,0,958,0,0,0,0,0,0,0,0,0,0,0,0,0,0,0,0,0,0,0,0,0,0],"split_type":[0,0,0,0,0,0,0,0,0,0,0,0,0,0,0,0,0,0,0,0,0,0,0,0,0,0,0,0,0,0,0,0,0,0,0,0,0,0,0,0,0,0,0,0,0,0,0,0,0,0,0,0,0,0,0,0,0,0,0,0,0],"sum_hessian":[2.1253037E3,9.019874E1,2.035105E3,8.842778E1,1.7709621E0,1.993433E3,4.1672024E1,7.910532E1,9.322453E0,1.961098E3,3.2334972E1,4.0402145E1,1.2698776E0,7.7743484E1,1.3618429E0,1.9886061E0,7.333846E0,1.9275754E3,3.352263E1,2.8279188E1,4.055784E0,1.4860931E1,2.5541214E1,3.9926524E0,7.375083E1,4.781784E0,2.5520623E0,8.67726E1,1.8408027E3,1.5030222E1,1.8492405E1,2.6933062E1,1.3461269E0,1.1277797E0,2.9280043E0,1.032406E0,1.3828526E1,1.7638748E0,2.377734E1,1.8622757E0,2.1303768E0,7.21798E1,1.5710244E0,1.9025975E0,2.8791864E0,1.3294019E0,1.2226604E0,8.532561E1,1.4469892E0,9.239247E1,1.7484103E3,4.2545843E0,1.0775638E1,1.0557734E0,1.7436632E1,2.5893799E1,1.0392624E0,1.0821059E0,1.8458984E0,2.746869E0,2.103047E1],"tree_param":{"num_deleted":"0","num_feature":"5000","num_nodes":"61","size_leaf_vector":"1"}},{"base_weights":[8.138632E-3,-2.5376821E-2,1.1504163E0,8.1151426E-1,-7.0421875E-2,1.2893416E0,-3.8267294E-1,-1.93298E-1,8.4181327E-1,-1.0371341E-1,3.6037642E-1,1.3831314E0,-2.7609527E-1,8.680516E-1,-2.1060123E-1,-1.2950443E-1,1.5406997E0,1.4900752E0,7.4481614E-2,8.950137E-1,-1.9331683E-1,-1.5309581E-1,1.6370593E0,1.6013823E0,6.039981E-2,1.5480503E0,1.6354613E-1,2.8085408E-1,-4.210801E-1,2.7541485E-1,-9.6114956E-2,3.0481106E-1,-5.7056718E-2,3.6305234E-1,8.7370193E-1,3.0287227E-1,5.308854E-1,4.7444883E-1,7.559842E-3,-1.387345E-1,2.0182697E-1,-2.1931426E-1,5.060241E-2],"categories":[],"categories_nodes":[],"categories_segments":[],"categories_sizes":[],"default_left":[1,0,1,0,1,1,0,0,1,1,0,1,0,1,0,1,1,1,0,1,0,0,0,0,0,1,0,0,0,0,0,0,0,0,0,0,0,0,0,0,0,0,0],"id":16,"left_children":[1,3,5,7,9,11,-1,-1,13,15,-1,17,-1,19,-1,21,23,25,27,29,-1,31,33,35,-1,37,39,-1,41,-1,-1,-1,-1,-1,-1,-1,-1,-1,-1,-1,-1,-1,-1],"loss_changes":[7.811047E1,7.478825E1,2.1245575E1,5.012123E0,7.980287E1,1.2775917E1,0E0,0E0,4.647835E0,7.802176E1,0E0,7.3966446E0,0E0,4.592552E0,0E0,7.558101E1,1.9868546E0,3.5566483E0,2.5742888E0,3.0147247E0,0E0,7.758717E1,9.489922E0,9.0534973E-1,0E0,2.3716354E0,1.3287772E0,0E0,8.419152E-1,0E0,0E0,0E0,0E0,0E0,0E0,0E0,0E0,0E0,0E0,0E0,0E0,0E0,0E0],"parents":[2147483647,0,0,1,1,2,2,3,3,4,4,5,5,8,8,9,9,11,11,13,13,15,15,16,16,17,17,18,18,19,19,21,21,22,22,23,23,25,25,26,26,28,28],"right_children":[2,4,6,8,10,12,-1,-1,14,16,-1,18,-1,20,-1,22,24,26,28,30,-1,32,34,36,-1,38,40,-1,42,-1,-1,-1,-1,-1,-1,-1,-1,-1,-1,-1,-1,-1,-1],"split_conditions":[1.0777253E-1,7.10936E-1,4.3023708E-1,2.564701E-1,2.09155E-1,1.7952405E-1,-3.8267294E-1,-1.93298E-1,9.604619E-2,1.914447E-1,3.6037642E-1,7.3407665E-2,-2.7609527E-1,3.1638393E-1,-2.1060123E-1,1.4037241E-1,2.1333623E-1,2.0851366E-1,1.639935E-1,2.4036959E-1,-1.9331683E-1,2.00001E0,4.3589735E-1,3.9524642E-1,6.039981E-2,1.9934273E-1,1.7553343E-1,2.8085408E-1,1.0354069E-1,2.7541485E-1,-9.6114956E-2,3.0481106E-1,-5.7056718E-2,3.6305234E-1,8.7370193E-1,3.0287227E-1,5.308854E-1,4.7444883E-1,7.559842E-3,-1.387345E-1,2.0182697E-1,-2.1931426E-1,5.060241E-2],"split_indices":[375,889,2337,1585,2333,1785,0,0,294,57,0,1020,0,1060,0,3987,1832,751,3555,3833,0,3870,3987,3415,0,2878,1451,0,303,0,0,0,0,0,0,0,0,0,0,0,0,0,0],"split_type":[0,0,0,0,0,0,0,0,0,0,0,0,0,0,0,0,0,0,0,0,0,0,0,0,0,0,0,0,0,0,0,0,0,0,0,0,0,0,0,0,0,0,0],"sum_hessian":[2.0385304E3,1.9813728E3,5.715748E1,1.0032991E2,1.881043E3,5.4504772E1,2.6527042E0,1.6323289E0,9.869758E1,1.83395E3,4.7092983E1,5.2644318E1,1.8604554E0,9.7478584E1,1.2189956E0,1.8065375E3,2.7412537E1,4.8539036E1,4.105281E0,9.617236E1,1.3062207E0,1.7836315E3,2.2905983E1,2.6037245E1,1.3752906E0,4.63465E1,2.192536E0,1.1742783E0,2.9310024E0,9.462358E1,1.5487792E0,5.4037724E1,1.7295938E3,1.862158E1,4.2844033E0,7.3130064E0,1.872424E1,4.5312805E1,1.0336968E0,1.0246823E0,1.1678538E0,1.764189E0,1.1668133E0],"tree_param":{"num_deleted":"0","num_feature":"5000","num_nodes":"43","size_leaf_vector":"1"}},{"base_weights":[1.1066814E-2,-3.16025E-1,4.2940143E-2,1.2447962E0,1.5579598E-2,-1.053061E0,1.4300617E0,-1.3519812E-2,1.1959659E0,1.0342577E-1,-5.542955E-1,-2.5723752E-1,1.5113578E0,-5.2150182E-2,9.4199044E-1,-2.762168E-1,3.9046448E-1,1.1791748E0,2.1005638E0,9.6961194E-1,-6.356131E-2,1.2810194E0,7.891703E-2,3.9094225E-1,1.11046575E-1,2.1120185E-1,6.722672E-1,3.4864676E-1,-2.8221425E-2,4.0718105E-1,6.3648105E-2,3.1710458E-1,-9.7793855E-2],"categories":[],"categories_nodes":[],"categories_segments":[],"categories_sizes":[],"default_left":[0,0,0,0,1,0,0,1,0,0,0,0,0,0,1,0,0,1,0,0,0,1,0,0,0,0,0,0,0,0,0,0,0],"id":17,"left_children":[1,-1,3,5,7,9,11,13,15,-1,-1,-1,17,19,21,-1,-1,23,25,-1,27,29,31,-1,-1,-1,-1,-1,-1,-1,-1,-1,-1],"loss_changes":[6.670955E1,0E0,6.274451E1,1.9586716E1,6.415201E1,4.7962027E0,8.683807E0,6.734921E1,1.1240631E1,0E0,0E0,0E0,5.1026E0,6.5915306E1,2.0645103E1,0E0,0E0,2.229885E0,9.076843E-1,0E0,6.548932E1,3.8555145E0,8.685692E0,0E0,0E0,0E0,0E0,0E0,0E0,0E0,0E0,0E0,0E0],"parents":[2147483647,0,0,2,2,3,3,4,4,5,5,6,6,7,7,8,8,12,12,13,13,14,14,17,17,18,18,20,20,21,21,22,22],"right_children":[2,-1,4,6,8,10,12,14,16,-1,-1,-1,18,20,22,-1,-1,24,26,-1,28,30,32,-1,-1,-1,-1,-1,-1,-1,-1,-1,-1],"split_conditions":[1.1576355E0,-3.16025E-1,2.00001E0,1.4489251E-1,4.7306743E-2,2.1222794E-1,2.3453848E-1,2.0277102E-1,4.9071574E-1,1.0342577E-1,-5.542955E-1,-2.5723752E-1,4.0888152E-1,1.425595E0,5.1925387E-2,-2.762168E-1,3.9046448E-1,1.7448388E-1,3.464661E-1,9.6961194E-1,9.1919684E-1,9.0540305E-2,7.507935E-1,3.9094225E-1,1.11046575E-1,2.1120185E-1,6.722672E-1,3.4864676E-1,-2.8221425E-2,4.0718105E-1,6.3648105E-2,3.1710458E-1,-9.7793855E-2],"split_indices":[2518,0,4817,2613,3002,4817,75,2176,4978,0,0,0,4817,4950,1020,0,0,1832,3415,0,177,2619,3416,0,0,0,0,0,0,0,0,0,0],"split_type":[0,0,0,0,0,0,0,0,0,0,0,0,0,0,0,0,0,0,0,0,0,0,0,0,0,0,0,0,0,0,0,0,0],"sum_hessian":[1.9638395E3,5.616106E1,1.9076783E3,4.1471687E1,1.8662067E3,2.7447202E0,3.8726967E1,1.8222717E3,4.393491E1,1.1999459E0,1.5447742E0,1.001423E0,3.7725544E1,1.7523705E3,6.9901245E1,1.7205867E0,4.2214325E1,2.604383E1,1.1681711E1,5.0903916E0,1.7472802E3,4.9839317E1,2.0061932E1,2.205377E1,3.9900618E0,1.6159883E0,1.0065723E1,4.1535507E1,1.7057446E3,4.6268745E1,3.570571E0,5.4019637E0,1.4659966E1],"tree_param":{"num_deleted":"0","num_feature":"5000","num_nodes":"33","size_leaf_vector":"1"}},{"base_weights":[1.058195E-2,1.4309291E0,-1.2237773E-2,1.51208E0,-1.4158493E-1,-3.9136153E-2,1.2516406E0,1.5744647E0,4.1527137E-2,7.3345214E-1,-8.3687715E-2,-5.0258566E-2,1.2980803E0,7.736954E-2,1.6142056E0,8.089723E-1,-4.3620297E-1,-1.1373914E-1,1.19094E0,1.3291448E0,2.6649514E-2,2.3273422E-1,1.696389E0,-4.231908E-1,8.715808E-1,1.7761657E0,-1.3383366E-1,-4.5388896E-2,1.2380825E0,4.063839E-1,8.949788E-2,2.0907402E-1,5.2498144E-1,-4.5898205E-1,2.777883E-1,2.9715076E-1,6.796595E-1,-5.2206825E-2,2.4494694E-1,3.8577405E-1,3.0157851E-2],"categories":[],"categories_nodes":[],"categories_segments":[],"categories_sizes":[],"default_left":[0,1,1,1,0,0,0,0,0,1,1,0,1,0,0,0,0,0,0,1,0,0,0,0,0,0,1,0,1,0,0,0,0,0,0,0,0,0,0,0,0],"id":18,"left_children":[1,3,5,7,-1,9,11,13,-1,15,17,-1,19,-1,21,23,-1,25,27,29,-1,-1,31,-1,33,35,37,-1,39,-1,-1,-1,-1,-1,-1,-1,-1,-1,-1,-1,-1],"loss_changes":[6.207164E1,5.389744E0,6.414096E1,2.2913055E0,0E0,6.363333E1,2.8087006E0,1.0441284E0,0E0,1.7828236E1,6.705882E1,0E0,1.3163605E0,0E0,5.3782654E-1,1.4859161E1,0E0,6.509499E1,2.7392616E0,5.7138824E-1,0E0,0E0,4.676819E-2,0E0,1.3954651E1,4.690983E0,6.471739E1,0E0,1.9965858E0,0E0,0E0,0E0,0E0,0E0,0E0,0E0,0E0,0E0,0E0,0E0,0E0],"parents":[2147483647,0,0,1,1,2,2,3,3,5,5,6,6,7,7,9,9,10,10,12,12,14,14,15,15,17,17,18,18,19,19,22,22,24,24,25,25,26,26,28,28],"right_children":[2,4,6,8,-1,10,12,14,-1,16,18,-1,20,-1,22,24,-1,26,28,30,-1,-1,32,-1,34,36,38,-1,40,-1,-1,-1,-1,-1,-1,-1,-1,-1,-1,-1,-1],"split_conditions":[2.0538726E-1,4.770667E-2,7.603519E-2,2.0056815E-1,-1.4158493E-1,2.00001E0,2.9151085E-1,4.888651E-2,4.1527137E-2,4.1399688E-1,1.3518755E-1,-5.0258566E-2,1.6856955E-1,7.736954E-2,1.0148562E-1,1.4510822E0,-4.3620297E-1,2.00001E0,3.238608E-1,1.1750688E-1,2.6649514E-2,2.3273422E-1,3.583248E-1,-4.231908E-1,1.6110734E0,2.7404395E-1,1.0191673E-1,-4.5388896E-2,8.696481E-2,4.063839E-1,8.949788E-2,2.0907402E-1,5.2498144E-1,-4.5898205E-1,2.777883E-1,2.9715076E-1,6.796595E-1,-5.2206825E-2,2.4494694E-1,3.8577405E-1,3.0157851E-2],"split_indices":[4768,4272,1118,2289,0,4847,2150,2694,0,2075,1141,0,929,0,889,3232,0,2796,2289,3212,0,0,928,0,955,1832,929,0,4643,0,0,0,0,0,0,0,0,0,0,0,0],"split_type":[0,0,0,0,0,0,0,0,0,0,0,0,0,0,0,0,0,0,0,0,0,0,0,0,0,0,0,0,0,0,0,0,0,0,0,0,0,0,0,0,0],"sum_hessian":[1.913546E3,2.928177E1,1.8842643E3,2.828106E1,1.0007128E0,1.845947E3,3.8317173E1,2.6912634E1,1.3684257E0,9.9800446E1,1.7461466E3,1.1315124E0,3.718566E1,1.0080094E0,2.5904623E1,9.7079056E1,2.72139E0,1.7068164E3,3.9330208E1,3.6157658E1,1.0280051E0,3.2444775E0,2.2660147E1,2.0725226E0,9.500654E1,1.7037485E1,1.6897789E3,1.2595329E0,3.8070675E1,3.497932E1,1.1783366E0,1.865005E0,2.0795141E1,1.5028745E0,9.350366E1,7.6997695E0,9.337715E0,1.6220015E3,6.777742E1,3.640935E1,1.661323E0],"tree_param":{"num_deleted":"0","num_feature":"5000","num_nodes":"41","size_leaf_vector":"1"}},{"base_weights":[1.223106E-2,2.7386777E-3,1.0020131E0,-2.4182897E-2,1.1327845E0,-4.0939987E-2,1.7976758E0,-3.3372232E-1,1.2183486E0,8.6653036E-1,-7.68811E-2,1.101855E0,9.4953835E-1,1.3039712E0,-2.917652E-1,1.0115851E0,-1.0436227E-1,-1.0775302E-1,1.0459789E0,1.3907095E0,-8.058599E-2,1.3503724E0,-4.4201873E-2,-1.4443865E-1,1.105072E-2,3.258782E-1,-1.7061E-1,-3.90501E-1,1.3715613E-1,-3.869976E-2,4.445702E-1,-3.5655373E-1,3.441363E-1,4.898909E-1,-2.4588628E-2,-1.3525804E-2,4.20498E-1],"categories":[],"categories_nodes":[],"categories_segments":[],"categories_sizes":[],"default_left":[1,1,0,1,0,0,0,0,1,1,1,1,0,1,0,1,0,1,0,1,0,0,0,0,0,0,0,0,0,0,0,0,0,0,0,0,0],"id":19,"left_children":[1,3,-1,5,7,9,11,-1,13,15,17,19,-1,21,23,25,27,29,31,33,-1,35,-1,-1,-1,-1,-1,-1,-1,-1,-1,-1,-1,-1,-1,-1,-1],"loss_changes":[5.837475E1,5.612627E1,0E0,5.508869E1,9.602264E0,5.833784E1,1.2161045E1,0E0,5.789074E0,9.70274E0,5.971771E1,5.295741E0,0E0,2.8770752E0,2.0858112E-1,7.625309E0,7.1601276E0,5.6741188E1,1.1782791E1,3.8554077E0,0E0,2.82827E0,0E0,0E0,0E0,0E0,0E0,0E0,0E0,0E0,0E0,0E0,0E0,0E0,0E0,0E0,0E0],"parents":[2147483647,0,0,1,1,3,3,4,4,5,5,6,6,8,8,9,9,10,10,11,11,13,13,14,14,15,15,16,16,17,17,18,18,19,19,21,21],"right_children":[2,4,-1,6,8,10,12,-1,14,16,18,20,-1,22,24,26,28,30,32,34,-1,36,-1,-1,-1,-1,-1,-1,-1,-1,-1,-1,-1,-1,-1,-1,-1],"split_conditions":[6.5511054E-1,1.8820326E-1,1.0020131E0,3.0716866E-1,1.458494E-1,3.0639672E-1,6.001866E-1,-3.3372232E-1,1.3788632E-1,5.181779E-2,1.22649245E-1,1.016824E-1,9.4953835E-1,1.08911596E-1,1.2779248E-1,6.1222274E-2,1.6451864E-1,1.9828466E-1,1.8903455E-1,1.1086422E-1,-8.058599E-2,1.4551868E-1,-4.4201873E-2,-1.4443865E-1,1.105072E-2,3.258782E-1,-1.7061E-1,-3.90501E-1,1.3715613E-1,-3.869976E-2,4.445702E-1,-3.5655373E-1,3.441363E-1,4.898909E-1,-2.4588628E-2,-1.3525804E-2,4.20498E-1],"split_indices":[3963,2123,0,840,1440,4521,840,0,889,303,733,4794,0,653,1832,3541,1451,2962,4583,1020,0,894,0,0,0,0,0,0,0,0,0,0,0,0,0,0,0],"split_type":[0,0,0,0,0,0,0,0,0,0,0,0,0,0,0,0,0,0,0,0,0,0,0,0,0,0,0,0,0,0,0,0,0,0,0,0,0],"sum_hessian":[1.8472426E3,1.8429863E3,4.256183E0,1.8010575E3,4.192878E1,1.7856113E3,1.5446165E1,1.0986812E0,4.0830097E1,6.714597E1,1.7184655E3,1.1433871E1,4.0122933E0,3.876846E1,2.06164E0,5.838164E1,8.76433E0,1.673362E3,4.5103394E1,9.43128E0,2.0025916E0,3.763475E1,1.133707E0,1.0121508E0,1.0494893E0,5.604584E1,2.3358006E0,2.3773866E0,6.3869433E0,1.6521987E3,2.1163265E1,1.4875963E0,4.3615795E1,8.005496E0,1.4257836E0,1.3384476E0,3.6296303E1],"tree_param":{"num_deleted":"0","num_feature":"5000","num_nodes":"37","size_leaf_vector":"1"}},{"base_weights":[1.1692795E-2,3.0396266E-3,1.0006069E0,-2.1822883E-2,3.443156E-1,1.2742776E0,-4.501403E-2,1.311975E0,2.3754083E-2,-5.5790327E-2,2.796077E0,4.0088362E-1,1.1634204E-1,-8.230773E-2,1.1131917E0,1.6692714E-1,1.0273163E0,-3.4765553E-2,2.4878135E-1,4.0728204E-2,3.4693336E-1],"categories":[],"categories_nodes":[],"categories_segments":[],"categories_sizes":[],"default_left":[1,1,0,0,0,1,1,1,0,1,0,0,0,1,0,0,0,0,0,0,0],"id":20,"left_children":[1,3,-1,5,-1,7,9,11,-1,13,15,-1,-1,17,19,-1,-1,-1,-1,-1,-1],"loss_changes":[5.218275E1,5.156675E1,0E0,5.336622E1,0E0,1.3022003E0,5.3530254E1,1.5990448E-1,0E0,5.3957897E1,7.391964E0,0E0,0E0,5.213357E1,1.4754295E0,0E0,0E0,0E0,0E0,0E0,0E0],"parents":[2147483647,0,0,1,1,3,3,5,5,6,6,7,7,9,9,10,10,13,13,14,14],"right_children":[2,4,-1,6,-1,8,10,12,-1,14,16,-1,-1,18,20,-1,-1,-1,-1,-1,-1],"split_conditions":[6.4564717E-1,2.09155E-1,1.0006069E0,9.894899E-1,3.443156E-1,1.2707263E-1,3.2033482E-1,1.0335499E-1,2.3754083E-2,3.9830994E-2,6.306074E-2,4.0088362E-1,1.1634204E-1,2.0420471E-1,2.096353E-1,1.6692714E-1,1.0273163E0,-3.4765553E-2,2.4878135E-1,4.0728204E-2,3.4693336E-1],"split_indices":[2812,2333,0,4027,0,314,910,653,0,950,3222,0,0,2176,179,0,0,0,0,0,0],"split_type":[0,0,0,0,0,0,0,0,0,0,0,0,0,0,0,0,0,0,0,0,0],"sum_hessian":[1.81376E3,1.8100485E3,3.7115526E0,1.7725299E3,3.7518543E1,3.0210085E1,1.7423198E3,2.9191488E1,1.0185971E0,1.7367128E3,5.607013E0,2.8008986E1,1.1825025E0,1.6990997E3,3.7613102E1,1.6414714E0,3.9655418E0,1.6395797E3,5.9520016E1,1.7692878E0,3.5843815E1],"tree_param":{"num_deleted":"0","num_feature":"5000","num_nodes":"21","size_leaf_vector":"1"}},{"base_weights":[1.2168805E-2,-3.1021506E-1,3.8616747E-2,-3.1328422E-1,6.590701E-2,-3.176574E-1,9.177913E-2,-4.498552E-2,3.1914675E-1,-8.1841856E-2,1.2748572E0,-3.5945228E-1,3.9405897E-1,-3.6325935E-2,3.3643055E-1,3.9309356E-2,3.94897E-1,1.4307232E-1,-2.9936588E-1],"categories":[],"categories_nodes":[],"categories_segments":[],"categories_sizes":[],"default_left":[0,0,0,0,0,0,0,1,0,1,0,0,1,0,0,0,0,0,0],"id":21,"left_children":[1,-1,3,-1,5,-1,7,9,11,13,15,-1,17,-1,-1,-1,-1,-1,-1],"loss_changes":[4.922111E1,0E0,5.132882E1,0E0,4.9358913E1,0E0,5.149965E1,5.04373E1,7.117091E1,4.7713924E1,1.1636009E0,0E0,6.891612E1,0E0,0E0,0E0,0E0,0E0,0E0],"parents":[2147483647,0,0,2,2,4,4,6,6,7,7,8,8,9,9,10,10,12,12],"right_children":[2,-1,4,-1,6,-1,8,10,12,14,16,-1,18,-1,-1,-1,-1,-1,-1],"split_conditions":[5.013628E-1,-3.1021506E-1,6.7594004E-1,-3.1328422E-1,8.670088E-1,-3.176574E-1,1.1999208E0,1.8536513E-1,1.001454E0,4.7306743E-2,4.0901178E-1,-3.5945228E-1,8.210696E-2,-3.6325935E-2,3.3643055E-1,3.9309356E-2,3.94897E-1,1.4307232E-1,-2.9936588E-1],"split_indices":[1320,0,3438,0,936,0,1832,3416,1386,3002,3905,0,4140,0,0,0,0,0,0],"split_type":[0,0,0,0,0,0,0,0,0,0,0,0,0,0,0,0,0,0,0],"sum_hessian":[1.776397E3,4.285994E1,1.733537E3,4.1697174E1,1.6918398E3,3.714333E1,1.6546965E3,1.033709E3,6.2098755E2,1.0065396E3,2.7169418E1,2.8511078E1,5.9247644E2,9.756194E2,3.0920214E1,1.0960213E0,2.6073397E1,5.5981366E2,3.266279E1],"tree_param":{"num_deleted":"0","num_feature":"5000","num_nodes":"19","size_leaf_vector":"1"}},{"base_weights":[5.1106126E-3,9.4539243E-1,-2.406225E-2,1.0023715E0,-1.21802494E-1,8.9601403E-1,-5.31688E-2,-2.544474E-1,1.0600792E0,9.9129105E-1,-3.202366E-1,1.0545393E0,-7.762872E-2,-2.8418112E-1,1.6840488E-1,1.1010463E0,-1.04608804E-1,-2.4081531E-1,1.0580661E0,-3.8740724E-1,2.731118E-1,1.1503952E0,-2.3552744E-1,-1.0120517E-1,1.1277181E0,3.3735797E-1,9.566818E-3,1.5186112E-1,-2.4811754E-1,-1.6041455E-1,1.1124932E0,6.1135226E-1,9.1548115E-1,-1.214983E-1,1.3469951E0,1.1885175E0,-6.2151827E-2,3.468514E-1,-9.371945E-2,-3.9599687E-2,3.0536196E-1,-4.3362655E-2,3.625972E-1,4.4294146E-1,1.7057279E-1,3.7297642E-1,-5.144606E-2],"categories":[],"categories_nodes":[],"categories_segments":[],"categories_sizes":[],"default_left":[0,1,0,0,0,1,0,0,1,0,1,1,1,0,0,1,0,1,0,0,0,0,0,1,1,0,0,0,0,0,1,0,0,1,1,1,0,0,0,0,0,0,0,0,0,0,0],"id":22,"left_children":[1,3,5,7,-1,9,11,13,15,17,19,21,23,-1,-1,25,-1,27,29,-1,-1,31,-1,33,35,-1,-1,-1,-1,-1,37,-1,39,41,43,45,-1,-1,-1,-1,-1,-1,-1,-1,-1,-1,-1],"loss_changes":[4.7441788E1,4.4144783E0,4.4975246E1,3.912609E0,0E0,6.2853737E0,4.4168304E1,2.2338028E0,3.1666298E0,4.2042427E0,6.5500054E0,7.114208E0,4.5381336E1,0E0,0E0,1.1463852E0,0E0,1.8561558E0,4.5584373E0,0E0,0E0,5.198166E0,0E0,4.610601E1,2.733139E0,0E0,0E0,0E0,0E0,0E0,3.1328888E0,0E0,3.2025719E0,4.745807E1,1.3461418E0,2.4059525E0,0E0,0E0,0E0,0E0,0E0,0E0,0E0,0E0,0E0,0E0,0E0],"parents":[2147483647,0,0,1,1,2,2,3,3,5,5,6,6,7,7,8,8,9,9,10,10,11,11,12,12,15,15,17,17,18,18,21,21,23,23,24,24,30,30,32,32,33,33,34,34,35,35],"right_children":[2,4,6,8,-1,10,12,14,16,18,20,22,24,-1,-1,26,-1,28,30,-1,-1,32,-1,34,36,-1,-1,-1,-1,-1,38,-1,40,42,44,46,-1,-1,-1,-1,-1,-1,-1,-1,-1,-1,-1],"split_conditions":[3.320964E-1,7.103374E-2,2.00001E0,4.949513E-2,-1.21802494E-1,2.1138914E-1,7.2926664E-1,9.583643E-2,1.0626635E-1,9.576825E-2,2.2154285E-1,2.2652657E-1,1.8450162E-1,-2.8418112E-1,1.6840488E-1,1.0387123E-1,-1.04608804E-1,1.13320805E-1,4.073796E-1,-3.8740724E-1,2.731118E-1,1.4501215E0,-2.3552744E-1,1.4532828E-1,1.06036745E-1,3.3735797E-1,9.566818E-3,1.5186112E-1,-2.4811754E-1,-1.6041455E-1,8.8142104E-2,6.1135226E-1,1.6583666E-1,2.3212814E-1,1.3468243E-1,9.3251884E-2,-6.2151827E-2,3.468514E-1,-9.371945E-2,-3.9599687E-2,3.0536196E-1,-4.3362655E-2,3.625972E-1,4.4294146E-1,1.7057279E-1,3.7297642E-1,-5.144606E-2],"split_indices":[914,1533,3870,3066,0,3094,1872,1832,4794,4645,1382,928,4170,0,0,3482,0,1832,79,0,0,3495,0,3987,2582,0,0,0,0,0,2582,0,1872,2123,1832,1603,0,0,0,0,0,0,0,0,0,0,0],"split_type":[0,0,0,0,0,0,0,0,0,0,0,0,0,0,0,0,0,0,0,0,0,0,0,0,0,0,0,0,0,0,0,0,0,0,0,0,0,0,0,0,0,0,0,0,0,0,0],"sum_hessian":[1.7276843E3,5.1044445E1,1.6766398E3,4.922715E1,1.8172927E0,5.0500595E1,1.6261393E3,2.0114024E0,4.7215748E1,4.7003464E1,3.4971323E0,3.4222084E1,1.5919171E3,1.0005322E0,1.0108702E0,4.609378E1,1.1219699E0,2.2824423E0,4.472102E1,1.927055E0,1.5700774E0,3.2883324E1,1.3387601E0,1.5622753E3,2.96419E1,4.5052574E1,1.0412061E0,1.063636E0,1.2188064E0,1.186093E0,4.3534927E1,5.27623E0,2.7607094E1,1.5415896E3,2.0685661E1,2.8455507E1,1.1863918E0,4.242309E1,1.1118355E0,2.4325643E0,2.517453E1,1.5162137E3,2.537585E1,1.6966782E1,3.718879E0,2.7437069E1,1.0184376E0],"tree_param":{"num_deleted":"0","num_feature":"5000","num_nodes":"47","size_leaf_vector":"1"}},{"base_weights":[8.295438E-3,-3.178649E-1,3.230509E-2,-1.1429496E0,5.5167206E-2,-3.670719E-1,1.2591939E-1,-3.5880265E-1,7.7131115E-2,9.7554E-2,-3.9782646E-1,-1.2534212E0,1.1969021E-1,-4.0554854E-1,1.3474002E-1,-2.8842142E-1,4.354434E-2],"categories":[],"categories_nodes":[],"categories_segments":[],"categories_sizes":[],"default_left":[0,0,0,1,0,0,0,0,1,0,0,1,0,0,0,0,0],"id":23,"left_children":[1,-1,3,5,7,-1,-1,-1,9,11,-1,13,15,-1,-1,-1,-1],"loss_changes":[4.310515E1,0E0,4.4234154E1,4.471569E0,4.443346E1,0E0,0E0,0E0,4.559902E1,4.6946465E1,0E0,4.84832E0,4.2537254E1,0E0,0E0,0E0,0E0],"parents":[2147483647,0,0,2,2,3,3,4,4,8,8,9,9,11,11,12,12],"right_children":[2,-1,4,6,8,-1,-1,-1,10,12,-1,14,16,-1,-1,-1,-1],"split_conditions":[1.7203074E0,-3.178649E-1,1.2374593E0,2.4756357E-1,8.012614E-1,-3.670719E-1,1.2591939E-1,-3.5880265E-1,2.1333267E-1,1.4293202E0,-3.9782646E-1,3.265038E-1,9.594471E-1,-4.0554854E-1,1.3474002E-1,-2.8842142E-1,4.354434E-2],"split_indices":[2636,0,2969,1451,4623,0,0,0,2595,1355,0,2591,4852,0,0,0,0],"split_type":[0,0,0,0,0,0,0,0,0,0,0,0,0,0,0,0,0],"sum_hessian":[1.6789254E3,3.597079E1,1.6429546E3,3.0415504E1,1.6125391E3,2.9129625E1,1.2858804E0,2.6896978E1,1.5856421E3,1.5638124E3,2.182973E1,2.4313824E1,1.5394985E3,2.3180025E1,1.1337991E0,3.457222E1,1.5049264E3],"tree_param":{"num_deleted":"0","num_feature":"5000","num_nodes":"17","size_leaf_vector":"1"}},{"base_weights":[8.580355E-4,-1.9724607E-2,3.658305E-1,-4.4689972E-2,1.0100633E0,-5.6253944E-2,2.179273E0,-4.6128705E-1,1.1322037E0,-7.822405E-2,3.28474E-1,7.264665E-1,1.4158079E-1,8.120161E-2,-2.760949E-1,1.1926147E0,-9.96109E-2,-1.1049173E-1,7.017164E-1,4.2918122E-1,1.2434809E0,-4.3172173E-2,2.6969126E-1,2.783407E-1,-2.1092494E-1,2.4734785E-1,-9.0483144E-2,3.8984552E-1,1.4576659E-1],"categories":[],"categories_nodes":[],"categories_segments":[],"categories_sizes":[],"default_left":[1,1,0,1,0,1,1,0,1,1,0,0,0,0,0,0,0,1,1,0,1,0,0,0,0,0,0,0,0],"id":24,"left_children":[1,3,-1,5,7,9,11,13,15,17,-1,-1,-1,-1,-1,19,-1,21,23,25,27,-1,-1,-1,-1,-1,-1,-1,-1],"loss_changes":[4.13471E1,4.1723766E1,0E0,4.0853287E1,7.4257736E0,3.9958202E1,2.2564545E0,1.4771383E0,3.5591354E0,3.9034416E1,0E0,0E0,0E0,0E0,0E0,8.083992E-1,0E0,5.029888E1,2.0227371E1,1.3134986E0,7.2097015E-1,0E0,0E0,0E0,0E0,0E0,0E0,0E0,0E0],"parents":[2147483647,0,0,1,1,3,3,4,4,5,5,6,6,7,7,8,8,9,9,15,15,17,17,18,18,19,19,20,20],"right_children":[2,4,-1,6,8,10,12,14,16,18,-1,-1,-1,-1,-1,20,-1,22,24,26,28,-1,-1,-1,-1,-1,-1,-1,-1],"split_conditions":[6.1615128E-2,8.508192E-2,3.658305E-1,3.604446E-1,5.5751126E-2,2.09155E-1,2.1319574E-1,4.567537E-2,1.0048924E-1,1.0191673E-1,3.28474E-1,7.264665E-1,1.4158079E-1,8.120161E-2,-2.760949E-1,1.8004665E-1,-9.96109E-2,8.8671334E-2,1.6482468E-1,2.6130688E-1,8.339049E-2,-4.3172173E-2,2.6969126E-1,2.783407E-1,-2.1092494E-1,2.4734785E-1,-9.0483144E-2,3.8984552E-1,1.4576659E-1],"split_indices":[1337,1382,0,2837,2836,2333,1451,3222,4370,929,0,0,0,0,0,530,0,958,1641,3085,3760,0,0,0,0,0,0,0,0],"split_type":[0,0,0,0,0,0,0,0,0,0,0,0,0,0,0,0,0,0,0,0,0,0,0,0,0,0,0,0,0],"sum_hessian":[1.6465487E3,1.6201667E3,2.638197E1,1.5827523E3,3.7414394E1,1.5755347E3,7.2176247E0,2.6549659E0,3.475943E1,1.5469432E3,2.859147E1,5.9543433E0,1.2632817E0,1.1814258E0,1.4735401E0,3.3560318E1,1.1991117E0,1.4863099E3,6.0633244E1,2.6859064E0,3.0874413E1,1.4395161E3,4.6793827E1,5.2520275E1,8.11297E0,1.6598274E0,1.0260792E0,2.808312E1,2.7912915E0],"tree_param":{"num_deleted":"0","num_feature":"5000","num_nodes":"29","size_leaf_vector":"1"}},{"base_weights":[5.692774E-3,1.050032E0,-1.7112868E-2,-8.5430354E-1,1.2156014E0,1.290896E0,-3.5261188E-2,-4.3088442E-1,6.128131E-3,-1.9132851E-1,1.2968348E0,1.3618243E0,7.152369E-2,7.121443E-1,-6.838679E-2,1.4491471E0,4.8909187E-1,4.2325038E-1,1.2342157E-1,9.0091366E-1,-9.8685735E-1,1.4949565E0,-8.507018E-2,1.67047E-1,1.5014955E0,1.9252531E-1,-4.531856E-2,9.846643E-1,-7.337547E-1,-1.2598145E0,5.9289005E-2,1.6410936E0,-7.8883804E-2,-1.120264E-1,9.0599567E-1,2.695959E-1,4.885488E-1,3.0757493E-1,-1.8350135E-1,8.36572E-2,-4.0824962E-1,-7.0859306E-2,-4.447631E-1,2.4747646E-1,5.644757E-1,-4.433858E-2,1.9849382E-1,3.0652156E-1,-1.4887284E-1],"categories":[],"categories_nodes":[],"categories_segments":[],"categories_sizes":[],"default_left":[0,0,0,0,0,1,0,0,0,0,1,1,0,1,0,0,0,0,0,1,1,1,1,0,0,0,0,1,1,0,0,0,0,1,1,0,0,0,0,0,0,0,0,0,0,0,0,0,0],"id":25,"left_children":[1,3,5,7,9,11,13,-1,-1,-1,15,17,-1,19,21,23,25,-1,-1,27,29,31,33,-1,35,-1,-1,37,39,41,-1,43,-1,45,47,-1,-1,-1,-1,-1,-1,-1,-1,-1,-1,-1,-1,-1,-1],"loss_changes":[3.805649E1,1.1805283E1,3.717153E1,1.7188115E0,5.619095E0,1.2750549E0,3.826433E1,0E0,0E0,0E0,3.083271E0,3.4485626E-1,0E0,2.192686E1,3.8701073E1,3.5147476E-1,7.223246E-1,0E0,0E0,8.876415E0,2.5239878E0,4.4570656E0,3.9220444E1,0E0,3.299675E-1,0E0,0E0,4.325428E0,2.586525E0,9.845419E-1,0E0,1.31464E0,0E0,3.957116E1,6.8176823E0,0E0,0E0,0E0,0E0,0E0,0E0,0E0,0E0,0E0,0E0,0E0,0E0,0E0,0E0],"parents":[2147483647,0,0,1,1,2,2,3,3,4,4,5,5,6,6,10,10,11,11,13,13,14,14,15,15,16,16,19,19,20,20,21,21,22,22,24,24,27,27,28,28,29,29,31,31,33,33,34,34],"right_children":[2,4,6,8,10,12,14,-1,-1,-1,16,18,-1,20,22,24,26,-1,-1,28,30,32,34,-1,36,-1,-1,38,40,42,-1,44,-1,46,48,-1,-1,-1,-1,-1,-1,-1,-1,-1,-1,-1,-1,-1,-1],"split_conditions":[2.00001E0,1.4489251E-1,1.1455699E0,2.9587215E-1,2.6152772E-1,2.7970946E-1,3.2278734E-1,-4.3088442E-1,6.128131E-3,-1.9132851E-1,5.425559E-2,1.1345636E-1,7.152369E-2,1.3294269E-1,1.2463127E0,7.967006E-2,2.77845E-1,4.2325038E-1,1.2342157E-1,9.950489E-2,1.1831387E-1,1.06663816E-1,1.5072201E-1,1.67047E-1,9.191208E-1,1.9252531E-1,-4.531856E-2,2.7790236E-1,7.548984E-2,1.24772295E-1,5.9289005E-2,2.649494E-1,-7.8883804E-2,1.5703464E-1,2.014173E-1,2.695959E-1,4.885488E-1,3.0757493E-1,-1.8350135E-1,8.36572E-2,-4.0824962E-1,-7.0859306E-2,-4.447631E-1,2.4747646E-1,5.644757E-1,-4.433858E-2,1.9849382E-1,3.0652156E-1,-1.4887284E-1],"split_indices":[4817,2613,3920,2591,75,1095,2122,0,0,0,3066,3555,0,3555,4075,1743,1451,0,0,4794,1451,4794,375,0,3415,0,0,1059,3555,2122,0,928,0,4847,1451,0,0,0,0,0,0,0,0,0,0,0,0,0,0],"split_type":[0,0,0,0,0,0,0,0,0,0,0,0,0,0,0,0,0,0,0,0,0,0,0,0,0,0,0,0,0,0,0,0,0,0,0,0,0,0,0,0,0,0,0,0,0,0,0,0,0],"sum_hessian":[1.5961279E3,3.3147793E1,1.5629801E3,2.3187182E0,3.0829073E1,2.0429491E1,1.5425507E3,1.0068612E0,1.311857E0,1.0068368E0,2.9822237E1,1.8864286E1,1.5652035E0,6.459563E1,1.477955E3,2.4422865E1,5.399372E0,1.7478537E1,1.3857509E0,5.85591E1,6.036529E0,1.4670018E1,1.463285E3,1.9982256E0,2.2424639E1,4.357688E0,1.041684E0,5.608336E1,2.4757411E0,4.854295E0,1.1822343E0,1.3605427E1,1.0645915E0,1.4254021E3,3.788287E1,5.3074327E0,1.7117207E1,5.504172E1,1.041638E0,1.1591837E0,1.3165575E0,1.2357078E0,3.618587E0,4.104814E0,9.500612E0,1.3631875E3,6.221468E1,3.5245045E1,2.6378264E0],"tree_param":{"num_deleted":"0","num_feature":"5000","num_nodes":"49","size_leaf_vector":"1"}},{"base_weights":[7.986747E-3,1.2193862E0,-1.1487113E-2,1.3664546E0,8.953275E-2,-1.1278223E0,1.0536039E-2,1.401045E0,9.8218754E-2,2.0892464E-1,-1.9940768E-1,4.8578836E-2,-3.5424986E-1,1.0448934E0,-1.2248749E-2,1.4520027E-1,4.3433127E-1,1.0927149E0,3.388223E-2,-1.9878544E-2,9.0508837E-1,3.3823556E-1,1.5207448E-2,-4.1803926E-2,1.0030661E0,4.1406596E-1,-1.7483598E-2,3.2313865E-1,7.4456003E-3],"categories":[],"categories_nodes":[],"categories_segments":[],"categories_sizes":[],"default_left":[0,0,0,1,1,0,0,0,0,0,0,0,0,1,1,0,0,1,0,1,0,0,0,0,1,0,0,0,0],"id":26,"left_children":[1,3,5,7,9,11,13,15,-1,-1,-1,-1,-1,17,19,-1,-1,21,-1,23,-1,-1,-1,25,27,-1,-1,-1,-1],"loss_changes":[3.6623512E1,3.9589653E0,3.75856E1,3.1989288E-1,2.24757E0,2.2133675E0,3.5357822E1,1.8454742E-1,0E0,0E0,0E0,0E0,0E0,1.3177032E0,3.399785E1,0E0,0E0,1.0519829E0,0E0,3.291525E1,0E0,0E0,0E0,3.371995E1,2.2044868E0,0E0,0E0,0E0,0E0],"parents":[2147483647,0,0,1,1,2,2,3,3,4,4,5,5,6,6,7,7,13,13,14,14,17,17,19,19,23,23,24,24],"right_children":[2,4,6,8,10,12,14,16,-1,-1,-1,-1,-1,18,20,-1,-1,22,-1,24,-1,-1,-1,26,28,-1,-1,-1,-1],"split_conditions":[2.0538726E-1,1.6674027E-1,3.0076563E-1,5.454342E-2,7.842781E-2,6.579652E-2,5.2919656E-1,2.0343938E-1,9.8218754E-2,2.0892464E-1,-1.9940768E-1,4.8578836E-2,-3.5424986E-1,7.632153E-2,6.285636E-1,1.4520027E-1,4.3433127E-1,2.4958888E-1,3.388223E-2,1.3518755E-1,9.0508837E-1,3.3823556E-1,1.5207448E-2,2.00001E0,2.1333623E-1,4.1406596E-1,-1.7483598E-2,3.2313865E-1,7.4456003E-3],"split_indices":[4768,1832,4435,4083,2582,1142,2372,2289,0,0,0,0,0,3555,465,0,0,2122,0,1141,0,0,0,2796,1832,0,0,0,0],"split_type":[0,0,0,0,0,0,0,0,0,0,0,0,0,0,0,0,0,0,0,0,0,0,0,0,0,0,0,0,0],"sum_hessian":[1.5508668E3,2.3561686E1,1.5273052E3,2.0662699E1,2.898987E0,2.857648E1,1.4987286E3,1.9659843E1,1.0028557E0,1.6488762E0,1.2501109E0,1.0470489E0,2.7529432E1,3.133553E1,1.4673932E3,1.503835E0,1.8156008E1,2.9641998E1,1.6935301E0,1.4646974E3,2.695756E0,2.8606394E1,1.0356058E0,1.4349014E3,2.9795965E1,1.54854965E1,1.4194159E3,2.7604925E1,2.191039E0],"tree_param":{"num_deleted":"0","num_feature":"5000","num_nodes":"29","size_leaf_vector":"1"}},{"base_weights":[8.088186E-3,-3.638096E-1,2.5411272E-2,4.5148414E-2,-3.1867373E-1,2.0740351E-1,-1.0303606E-1,-9.625474E-1,2.559642E-1,-1.3714495E-1,1.1660779E0,-3.0753E-1,9.743604E-2,-2.9923573E-1,3.0546E-1,-1.7314231E-1,1.1569672E0,1.2351466E0,6.0909577E-2,-3.0182028E-1,1.0384028E-1,-7.059185E-2,1.9009578E-1,3.901914E-1,-1.5451002E-1,3.939197E-1,1.7882891E-1],"categories":[],"categories_nodes":[],"categories_segments":[],"categories_sizes":[],"default_left":[0,0,1,1,0,0,1,1,0,1,1,0,0,0,0,1,0,1,0,0,0,0,0,0,0,0,0],"id":27,"left_children":[1,-1,3,5,-1,7,9,11,13,15,17,-1,-1,-1,19,21,23,25,-1,-1,-1,-1,-1,-1,-1,-1,-1],"loss_changes":[3.229417E1,0E0,3.2361454E1,3.5591072E1,0E0,4.0384895E1,3.3659836E1,2.6171055E0,4.2437088E1,3.5349518E1,1.1034927E0,0E0,0E0,0E0,3.5241203E1,3.701057E1,5.6063843E0,1.534481E-1,0E0,0E0,0E0,0E0,0E0,0E0,0E0,0E0,0E0],"parents":[2147483647,0,0,2,2,3,3,5,5,6,6,7,7,8,8,9,9,10,10,14,14,15,15,16,16,17,17],"right_children":[2,-1,4,6,-1,8,10,12,14,16,18,-1,-1,-1,20,22,24,26,-1,-1,-1,-1,-1,-1,-1,-1,-1],"split_conditions":[1.2054503E0,-3.638096E-1,2.1465084E-1,5.2927956E-2,-3.1867373E-1,1.0578699E0,1.8536513E-1,1.1152176E-1,1.6974132E0,9.575464E-2,2.3009394E-1,-3.0753E-1,9.743604E-2,-2.9923573E-1,8.670088E-1,1.03329755E-1,4.371693E-1,2.525423E-1,6.0909577E-2,-3.0182028E-1,1.0384028E-1,-7.059185E-2,1.9009578E-1,3.901914E-1,-1.5451002E-1,3.939197E-1,1.7882891E-1],"split_indices":[2534,0,2106,1832,0,4502,3416,760,821,2962,3094,0,0,0,936,929,2962,1451,0,0,0,0,0,0,0,0,0],"split_type":[0,0,0,0,0,0,0,0,0,0,0,0,0,0,0,0,0,0,0,0,0,0,0,0,0,0,0],"sum_hessian":[1.5246132E3,2.0366228E1,1.504247E3,1.478378E3,2.586886E1,7.054946E2,7.7288336E2,2.736561E1,6.78129E2,7.535235E2,1.9359867E1,2.6291779E1,1.0738308E0,2.5033604E1,6.5309546E2,7.339733E2,1.9550188E1,1.7800676E1,1.5591902E0,1.8931171E1,6.3416425E2,6.821238E2,5.1849552E1,1.820775E1,1.3424387E0,1.4926042E1,2.8746347E0],"tree_param":{"num_deleted":"0","num_feature":"5000","num_nodes":"27","size_leaf_vector":"1"}},{"base_weights":[3.4400485E-3,-7.289919E-3,1.9406672E0,-2.1875376E-2,1.4338908E0,2.574555E-1,2.2674217E0,-2.9416181E-2,8.1828505E-1,3.1743366E-1,8.071358E-1,1.8767028E-1,7.590159E-1,-4.4894278E-2,1.3147635E0,1.0593008E0,-6.380405E-2,1.5425305E0,-8.672547E-2,-1.2672411E-1,3.427105E-1,-2.4423296E-2,3.482455E-1,5.060743E-1,-8.501016E-3],"categories":[],"categories_nodes":[],"categories_segments":[],"categories_sizes":[],"default_left":[1,1,0,1,0,0,0,1,0,0,0,0,0,0,1,0,1,1,0,0,0,0,0,0,0],"id":28,"left_children":[1,3,5,7,9,-1,11,13,-1,-1,-1,-1,-1,15,17,19,21,23,-1,-1,-1,-1,-1,-1,-1],"loss_changes":[3.0870533E1,3.1084024E1,9.476509E-1,3.0422617E1,4.149126E0,0E0,8.6426735E-1,3.0444016E1,0E0,0E0,0E0,0E0,0E0,3.0234781E1,6.531309E0,3.4836369E0,3.0742523E1,3.3920212E0,0E0,0E0,0E0,0E0,0E0,0E0,0E0],"parents":[2147483647,0,0,1,1,2,2,3,3,4,4,6,6,7,7,13,13,14,14,15,15,16,16,17,17],"right_children":[2,4,6,8,10,-1,12,14,-1,-1,-1,-1,-1,16,18,20,22,24,-1,-1,-1,-1,-1,-1,-1],"split_conditions":[3.3532667E-1,7.957968E-2,1.2867372E-1,6.572919E-1,4.749144E-1,2.574555E-1,2.6744157E-1,3.0716866E-1,8.1828505E-1,3.1743366E-1,8.071358E-1,1.8767028E-1,7.590159E-1,1.214328E0,1.016824E-1,9.986055E-2,1.914447E-1,2.0350039E-1,-8.672547E-2,-1.2672411E-1,3.427105E-1,-2.4423296E-2,3.482455E-1,5.060743E-1,-8.501016E-3],"split_indices":[2975,2149,1832,1059,2149,0,929,840,0,0,0,0,0,3919,4794,2628,57,1451,0,0,0,0,0,0,0],"split_type":[0,0,0,0,0,0,0,0,0,0,0,0,0,0,0,0,0,0,0,0,0,0,0,0,0],"sum_hessian":[1.4834519E3,1.4762712E3,7.180576E0,1.4624553E3,1.3815946E1,2.5057724E0,4.6748037E0,1.459442E3,3.0133898E0,1.2053408E1,1.7625386E0,1.1110334E0,3.56377E0,1.4437836E3,1.56584215E1,2.3382704E1,1.4204009E3,1.3744726E1,1.9136957E0,1.024422E0,2.235828E1,1.4011888E3,1.9211985E1,1.2520087E1,1.2246386E0],"tree_param":{"num_deleted":"0","num_feature":"5000","num_nodes":"25","size_leaf_vector":"1"}},{"base_weights":[6.1717834E-3,-8.672759E-1,2.8894112E-2,4.81956E-1,-1.0120195E0,-7.8598607E-1,5.4230213E-2,2.3600003E-1,-5.11175E-2,-1.0888017E0,2.2515379E-1,-9.213894E-1,6.193709E-1,-1.0435133E0,7.332364E-2,-1.1460501E0,6.0873397E-2,1.6847292E-1,-9.784449E-1,2.4462825E-1,4.8535336E-3,-3.3397302E-1,8.173105E-2,9.125339E-2,-3.3897445E-1,-1.1936303E0,2.9747998E-3,-3.0837202E-1,-2.3633137E-1,-1.0487458E0,1.1034777E-1,-2.1853363E-2,-3.690263E-1,9.3451E-2,-2.015057E-1,-3.463707E-1,1.6186887E-1,-3.2793015E-1,3.8745884E-2],"categories":[],"categories_nodes":[],"categories_segments":[],"categories_sizes":[],"default_left":[0,0,0,1,1,1,0,0,0,1,0,0,1,1,1,1,0,0,1,0,0,0,0,0,0,0,0,0,0,1,0,0,0,0,0,0,0,0,0],"id":29,"left_children":[1,3,5,7,9,11,13,-1,-1,15,-1,17,19,21,23,25,-1,-1,27,-1,-1,-1,-1,29,-1,31,-1,-1,33,35,37,-1,-1,-1,-1,-1,-1,-1,-1],"loss_changes":[2.9162668E1,7.7636795E0,2.96049E1,9.861993E-1,5.414295E0,8.799126E0,2.9202728E1,0E0,0E0,2.669857E0,0E0,3.9206734E0,5.0692856E-1,2.489296E0,2.9590302E1,1.7559853E0,0E0,0E0,1.1787872E0,0E0,0E0,0E0,0E0,2.9451126E1,0E0,1.1552544E0,0E0,0E0,1.0961591E0,4.3704777E0,3.01583E1,0E0,0E0,0E0,0E0,0E0,0E0,0E0,0E0],"parents":[2147483647,0,0,1,1,2,2,3,3,4,4,5,5,6,6,9,9,11,11,12,12,13,13,14,14,15,15,18,18,23,23,25,25,28,28,29,29,30,30],"right_children":[2,4,6,8,10,12,14,-1,-1,16,-1,18,20,22,24,26,-1,-1,28,-1,-1,-1,-1,30,-1,32,-1,-1,34,36,38,-1,-1,-1,-1,-1,-1,-1,-1],"split_conditions":[4.330276E-1,1.9823658E-1,1.231499E-1,1.7708783E-1,4.63253E-1,3.3844795E-2,1.360232E0,2.3600003E-1,-5.11175E-2,9.13638E-2,2.2515379E-1,3.694208E-1,1.491187E-1,1.042398E-1,1.2649748E-1,7.939957E-2,6.0873397E-2,1.6847292E-1,3.421824E-2,2.4462825E-1,4.8535336E-3,-3.3397302E-1,8.173105E-2,1.3913862E0,-3.3897445E-1,3.2695758E-1,2.9747998E-3,-3.0837202E-1,1.4879413E-1,8.532228E-2,1.001454E0,-2.1853363E-2,-3.690263E-1,9.3451E-2,-2.015057E-1,-3.463707E-1,1.6186887E-1,-3.2793015E-1,3.8745884E-2],"split_indices":[2576,530,3769,1451,1296,3699,3228,0,0,19,0,2122,4645,2628,3670,4370,0,0,4370,0,0,0,0,822,0,3415,0,0,1451,303,1386,0,0,0,0,0,0,0,0],"split_type":[0,0,0,0,0,0,0,0,0,0,0,0,0,0,0,0,0,0,0,0,0,0,0,0,0,0,0,0,0,0,0,0,0,0,0,0,0,0,0],"sum_hessian":[1.4671289E3,3.6256546E1,1.4308723E3,3.2869964E0,3.296955E1,4.2241596E1,1.3886307E3,2.100128E0,1.1868684E0,3.195953E1,1.0100191E0,3.884348E1,3.3981197E0,2.2822754E1,1.365808E3,3.0711185E1,1.2483462E0,1.1114852E0,3.7731995E1,2.2990146E0,1.0991051E0,2.1820557E1,1.0021973E0,1.3466652E3,1.914283E1,2.9465775E1,1.24541E0,3.5013256E1,2.718737E0,2.1296022E1,1.3253691E3,1.0227278E0,2.8443047E1,1.3298203E0,1.3889166E0,2.02218E1,1.0742229E0,1.9512728E1,1.3058564E3],"tree_param":{"num_deleted":"0","num_feature":"5000","num_nodes":"39","size_leaf_vector":"1"}},{"base_weights":[-1.076934E-4,-1.7625285E-2,1.0709039E0,1.0325276E0,-3.6411215E-2,3.3331376E-1,1.302455E-1,-2.4950582E-1,3.5788313E-1,-5.7146396E-2,9.083549E-1,-2.3762643E-1,6.688784E-2,-1.6997047E-1,1.0245601E0,9.1962916E-1,-3.0231935E-1,-2.8647786E-1,1.02289975E-1,1.100067E0,-5.315728E-2,-5.6794208E-2,3.0572557E-1,1.798808E-1,-1.1351031E-1,-3.3027264E-1,3.9721653E-2,-4.1229706E-2,3.475356E-1],"categories":[],"categories_nodes":[],"categories_segments":[],"categories_sizes":[],"default_left":[1,0,1,0,1,0,0,0,0,0,0,0,0,0,1,0,0,0,0,0,0,0,0,0,0,0,0,0,0],"id":30,"left_children":[1,3,5,7,9,-1,-1,-1,-1,11,13,15,17,-1,19,21,23,-1,25,27,-1,-1,-1,-1,-1,-1,-1,-1,-1],"loss_changes":[2.7006624E1,2.7978415E1,1.0974884E-1,8.445845E0,2.7328318E1,0E0,0E0,0E0,0E0,3.0536774E1,5.715763E0,4.187081E1,2.9357264E1,0E0,2.747425E0,3.464182E0,3.636683E1,0E0,2.850564E1,2.0814972E0,0E0,0E0,0E0,0E0,0E0,0E0,0E0,0E0,0E0],"parents":[2147483647,0,0,1,1,2,2,3,3,4,4,9,9,10,10,11,11,12,12,14,14,15,15,16,16,18,18,19,19],"right_children":[2,4,6,8,10,-1,-1,-1,-1,12,14,16,18,-1,20,22,24,-1,26,28,-1,-1,-1,-1,-1,-1,-1,-1,-1],"split_conditions":[2.036386E-1,1.3361598E0,1.7444411E-1,4.9071574E-1,1.8820326E-1,3.3331376E-1,1.302455E-1,-2.4950582E-1,3.5788313E-1,1.0241E-1,3.903437E-1,3.538082E-1,2.8633773E-1,-1.6997047E-1,1.3788632E-1,1.9493027E-1,2.9845604E-1,-2.8647786E-1,4.006257E-1,1.4551868E-1,-5.315728E-2,-5.6794208E-2,3.0572557E-1,1.798808E-1,-1.1351031E-1,-3.3027264E-1,3.9721653E-2,-4.1229706E-2,3.475356E-1],"split_indices":[4986,3002,1451,4978,2123,0,0,0,0,3222,2566,929,4140,0,889,894,530,0,4623,894,0,0,0,0,0,0,0,0,0],"split_type":[0,0,0,0,0,0,0,0,0,0,0,0,0,0,0,0,0,0,0,0,0,0,0,0,0,0,0,0,0],"sum_hessian":[1.4374609E3,1.4152958E3,2.2165201E1,2.3924572E1,1.3913712E3,2.0150045E1,2.0151565E0,1.5640471E0,2.2360525E1,1.3624093E3,2.8961864E1,5.545612E2,8.078481E2,1.8321329E0,2.712973E1,2.8660173E1,5.2590106E2,2.6181986E1,7.816661E2,2.5605532E1,1.5241998E0,2.2844837E0,2.637569E1,4.0359447E1,4.8554163E2,1.8218788E1,7.6344727E2,1.0926386E0,2.4512892E1],"tree_param":{"num_deleted":"0","num_feature":"5000","num_nodes":"29","size_leaf_vector":"1"}},{"base_weights":[1.1317615E-3,-1.0873756E-2,4.79429E-1,-2.088475E-2,5.4819983E-1,-3.635073E-2,1.1929861E0,8.384376E-1,-5.854573E-2,7.152356E-2,1.241124E0,1.2303045E0,2.5995177E-1,-6.823723E-2,1.9992625E0,9.6298985E-2,3.842365E-1,3.894989E-1,-3.6411458E-3,1.5987079E-1,-1.717335E-1,5.886276E-1,-2.3418523E-2,2.0074455E-1,6.9106674E-1],"categories":[],"categories_nodes":[],"categories_segments":[],"categories_sizes":[],"default_left":[1,1,0,1,0,0,0,0,1,0,0,1,1,0,0,0,0,0,0,0,0,0,0,0,0],"id":31,"left_children":[1,3,-1,5,-1,7,9,11,13,-1,15,17,19,21,23,-1,-1,-1,-1,-1,-1,-1,-1,-1,-1],"loss_changes":[2.6804203E1,2.5575443E1,0E0,2.5973537E1,0E0,2.6547754E1,5.0392723E-1,7.350376E0,2.669992E1,0E0,1.8495178E-1,1.6979561E0,3.6976798E0,2.6616402E1,9.9900246E-1,0E0,0E0,0E0,0E0,0E0,0E0,0E0,0E0,0E0,0E0],"parents":[2147483647,0,0,1,1,3,3,5,5,6,6,7,7,8,8,10,10,11,11,12,12,13,13,14,14],"right_children":[2,4,-1,6,-1,8,10,12,14,-1,16,18,20,22,24,-1,-1,-1,-1,-1,-1,-1,-1,-1,-1],"split_conditions":[2.564701E-1,4.366337E-1,4.79429E-1,8.2056254E-2,5.4819983E-1,3.356416E-1,1.7792471E-1,2.00001E0,2.9740596E-1,7.152356E-2,1.127371E-1,3.4327574E-2,5.856368E-2,1.0875912E0,2.8118086E-1,9.6298985E-2,3.842365E-1,3.894989E-1,-3.6411458E-3,1.5987079E-1,-1.717335E-1,5.886276E-1,-2.3418523E-2,2.0074455E-1,6.9106674E-1],"split_indices":[1585,4950,0,752,0,2713,2395,2582,4585,0,2946,1440,4370,50,2122,0,0,0,0,0,0,0,0,0,0],"split_type":[0,0,0,0,0,0,0,0,0,0,0,0,0,0,0,0,0,0,0,0,0,0,0,0,0],"sum_hessian":[1.3961561E3,1.3867244E3,9.4318E0,1.3801963E3,6.5280023E0,1.3637903E3,1.6406057E1,3.2835705E1,1.3309546E3,1.073391E0,1.5332666E1,1.8903612E1,1.3932092E1,1.325678E3,5.2766027E0,1.0094067E0,1.4323259E1,1.7879696E1,1.0239158E0,1.0762697E1,3.1693943E0,5.4269795E0,1.320251E3,1.5779891E0,3.6986136E0],"tree_param":{"num_deleted":"0","num_feature":"5000","num_nodes":"25","size_leaf_vector":"1"}},{"base_weights":[4.5338916E-3,-3.0094573E-1,2.2470985E-2,-3.2925826E-1,3.8835622E-2,-7.9489887E-1,6.0650248E-2,2.1233477E-1,-9.229663E-1,-3.3666185E-1,7.630953E-2,1.7510629E-1,-9.969851E-1,9.122012E-2,-3.4041363E-1,-3.136873E-1,-9.879375E-2,-3.10134E-1,3.2365102E-2],"categories":[],"categories_nodes":[],"categories_segments":[],"categories_sizes":[],"default_left":[0,0,0,0,0,0,0,0,0,0,1,0,1,0,0,0,0,0,0],"id":32,"left_children":[1,-1,3,-1,5,7,9,-1,11,-1,13,-1,15,17,-1,-1,-1,-1,-1],"loss_changes":[2.5022932E1,0E0,2.4968079E1,0E0,2.4443611E1,7.248644E0,2.4314201E1,0E0,4.15217E0,0E0,2.3431305E1,0E0,6.586323E-1,2.405281E1,0E0,0E0,0E0,0E0,0E0],"parents":[2147483647,0,0,2,2,4,4,5,5,6,6,8,8,10,10,12,12,13,13],"right_children":[2,-1,4,-1,6,8,10,-1,12,-1,14,-1,16,18,-1,-1,-1,-1,-1],"split_conditions":[6.7594004E-1,-3.0094573E-1,1.0529971E0,-3.2925826E-1,5.731481E-2,1.1522136E-1,1.2054503E0,2.1233477E-1,1.1623443E-1,-3.3666185E-1,2.1333267E-1,1.7510629E-1,3.843681E-2,9.3536913E-1,-3.4041363E-1,-3.136873E-1,-9.879375E-2,-3.10134E-1,3.2365102E-2],"split_indices":[3438,0,877,0,4645,889,2534,0,4717,0,2595,0,3222,3270,0,0,0,0,0],"split_type":[0,0,0,0,0,0,0,0,0,0,0,0,0,0,0,0,0,0,0],"sum_hessian":[1.3821503E3,2.3211779E1,1.3589385E3,1.8618496E1,1.34032E3,3.3271606E1,1.3070483E3,2.257426E0,3.1014183E1,1.6154058E1,1.2908943E3,1.1298751E0,2.9884308E1,1.276107E3,1.47872715E1,2.7327463E1,2.5568445E0,1.7734959E1,1.2583721E3],"tree_param":{"num_deleted":"0","num_feature":"5000","num_nodes":"19","size_leaf_vector":"1"}},{"base_weights":[-1.2118375E-3,1.4891777E0,-1.2992342E-2,2.774815E-1,2.0709825E0,1.2886868E0,-2.6781058E-2,2.1670209E-1,7.7606255E-1,-3.498692E-2,4.2183113E-1,-5.2915443E-2,6.659876E-1,1.1908532E0,-6.862299E-2,1.0481135E0,-1.4593986E-1,1.2796046E0,6.625901E-2,9.2528045E-1,-8.86974E-2,1.1418061E0,-2.4981941E-1,-8.0216485E-1,2.4730211E-1,1.2166351E-1,4.097518E-1,-3.33887E-1,3.1896338E-1,-3.5653852E-2,1.8447773E-1,3.5277072E-1,1.8242154E-2,1.5465035E-1,-2.687848E-1,-4.3351624E-2,-3.949692E-1,2.6119322E-1,-2.0236011E-1],"categories":[],"categories_nodes":[],"categories_segments":[],"categories_sizes":[],"default_left":[0,0,0,0,0,0,1,0,0,0,0,0,1,1,0,1,0,0,0,0,1,1,0,0,0,0,0,0,0,0,0,0,0,0,0,0,0,0,0],"id":33,"left_children":[1,3,5,-1,7,9,11,-1,-1,-1,-1,13,15,17,19,21,23,25,-1,27,29,31,33,35,37,-1,-1,-1,-1,-1,-1,-1,-1,-1,-1,-1,-1,-1,-1],"loss_changes":[2.3869654E1,1.5844707E0,2.4242466E1,0E0,1.2219944E0,2.5001373E0,2.421618E1,0E0,0E0,0E0,0E0,2.5244062E1,1.5239731E1,1.1048851E0,2.5477911E1,4.3210106E0,4.440653E0,5.4336166E-1,0E0,8.292339E0,2.6559196E1,1.0759697E0,1.9724687E0,1.9733768E0,6.9332633E0,0E0,0E0,0E0,0E0,0E0,0E0,0E0,0E0,0E0,0E0,0E0,0E0,0E0,0E0],"parents":[2147483647,0,0,1,1,2,2,4,4,5,5,6,6,11,11,12,12,13,13,14,14,15,15,16,16,17,17,19,19,20,20,21,21,22,22,23,23,24,24],"right_children":[2,4,6,-1,8,10,12,-1,-1,-1,-1,14,16,18,20,22,24,26,-1,28,30,32,34,36,38,-1,-1,-1,-1,-1,-1,-1,-1,-1,-1,-1,-1,-1,-1],"split_conditions":[2.00001E0,3.4549114E-1,1.2383579E0,2.774815E-1,2.909134E-1,1.010456E-1,2.0277102E-1,2.1670209E-1,7.7606255E-1,-3.498692E-2,4.2183113E-1,1.1455699E0,5.1925387E-2,2.7970946E-1,4.223708E-1,9.0540305E-2,1.3387232E-1,3.2626724E-1,6.625901E-2,2.1920134E-1,1.3179305E-1,2.6233113E-1,3.155855E-1,6.287171E-2,6.9724545E-2,1.2166351E-1,4.097518E-1,-3.33887E-1,3.1896338E-1,-3.5653852E-2,1.8447773E-1,3.5277072E-1,1.8242154E-2,1.5465035E-1,-2.687848E-1,-4.3351624E-2,-3.949692E-1,2.6119322E-1,-2.0236011E-1],"split_indices":[1898,1451,3477,0,2122,1603,2176,0,0,0,0,3920,1020,1095,1872,2619,3555,1141,0,3482,928,1015,3415,303,1020,0,0,0,0,0,0,0,0,0,0,0,0,0,0],"split_type":[0,0,0,0,0,0,0,0,0,0,0,0,0,0,0,0,0,0,0,0,0,0,0,0,0,0,0,0,0,0,0,0,0,0,0,0,0,0,0],"sum_hessian":[1.3574081E3,9.661726E0,1.3477465E3,6.2196393E0,3.4420867E0,1.31579E1,1.3345885E3,1.616478E0,1.8256088E0,1.0151225E0,1.2142777E1,1.286962E3,4.762645E1,1.5117292E1,1.2718447E3,3.2187035E1,1.5439413E1,1.3557615E1,1.559677E0,2.4286858E1,1.2475579E3,3.0132198E1,2.0548365E0,5.395599E0,1.0043815E1,1.7295914E0,1.1828024E1,1.0913117E0,2.3195545E1,1.197096E3,5.0461937E1,2.9125738E1,1.0064605E0,1.0332066E0,1.0216299E0,2.9302254E0,2.4653733E0,6.025158E0,4.018657E0],"tree_param":{"num_deleted":"0","num_feature":"5000","num_nodes":"39","size_leaf_vector":"1"}},{"base_weights":[3.330598E-3,1.5631377E0,-7.852332E-3,2.4230364E-1,5.288372E-1,-1.7745648E-2,5.328177E-1,7.421737E-1,-4.1306026E-2,8.8638663E-1,-3.432926E-1,-4.829736E-2,7.795212E-1,9.527098E-1,-1.4869301E-1,4.425608E-1,-3.2402083E-1,-6.358635E-2,1.1558737E0,-4.14773E-2,2.97504E-1,-7.055892E-3,2.0725334E-1,-2.2972357E-2,4.1753012E-1,2.1332756E-2,3.8073745E-1],"categories":[],"categories_nodes":[],"categories_segments":[],"categories_sizes":[],"default_left":[0,0,1,0,0,0,0,1,1,1,0,1,0,0,0,1,0,1,0,0,0,0,0,0,0,0,0],"id":34,"left_children":[1,3,5,-1,-1,7,-1,9,11,13,15,17,-1,19,-1,21,-1,23,25,-1,-1,-1,-1,-1,-1,-1,-1],"loss_changes":[2.3155867E1,1.5163422E-3,2.3298752E1,0E0,0E0,2.3521866E1,0E0,6.4888763E0,2.3629126E1,3.69446E0,3.5781035E0,2.3476536E1,0E0,1.5778065E0,0E0,3.9814645E-1,0E0,2.3851475E1,1.8740768E0,0E0,0E0,0E0,0E0,0E0,0E0,0E0,0E0],"parents":[2147483647,0,0,1,1,2,2,5,5,7,7,8,8,9,9,10,10,11,11,13,13,15,15,17,17,18,18],"right_children":[2,4,6,-1,-1,8,-1,10,12,14,16,18,-1,20,-1,22,-1,24,26,-1,-1,-1,-1,-1,-1,-1,-1],"split_conditions":[2.00001E0,6.5511054E-1,3.604446E-1,2.4230364E-1,5.288372E-1,2.00001E0,5.328177E-1,1.5863045E-1,6.188137E-1,1.419319E-1,1.1519075E-1,1.4037241E-1,7.795212E-1,1.4985593E-1,-1.4869301E-1,2.8499633E-1,-3.2402083E-1,2.947084E-1,6.975954E-2,-4.14773E-2,2.97504E-1,-7.055892E-3,2.0725334E-1,-2.2972357E-2,4.1753012E-1,2.1332756E-2,3.8073745E-1],"split_indices":[3963,3963,2837,0,0,3870,0,530,2287,1827,1451,3987,0,3617,0,45,0,556,303,0,0,0,0,0,0,0,0],"split_type":[0,0,0,0,0,0,0,0,0,0,0,0,0,0,0,0,0,0,0,0,0,0,0,0,0,0,0],"sum_hessian":[1.3257964E3,8.44966E0,1.3173468E3,2.8209586E0,5.628702E0,1.3110658E3,6.2809305E0,3.8508453E1,1.2725574E3,3.4154198E1,4.3542576E0,1.2701749E3,2.382386E0,3.2886623E1,1.2675732E0,2.3001854E0,2.054072E0,1.2551854E3,1.4989508E1,1.0463516E0,3.1840273E1,1.1140852E0,1.1861004E0,1.2450217E3,1.0163703E1,1.5708795E0,1.3418628E1],"tree_param":{"num_deleted":"0","num_feature":"5000","num_nodes":"27","size_leaf_vector":"1"}},{"base_weights":[5.567506E-3,-4.784826E-3,4.8643357E-1,-2.0118067E-2,1.0975085E0,-3.5564363E-2,3.2499763E-1,1.8591585E-2,1.1580374E0,-5.162802E-2,1.0670251E0,9.346667E-2,3.6103332E-1,1.029657E0,-6.7831114E-2,-3.848247E-2,1.1691527E0,3.5092518E-1,-4.9943205E-2,-2.5951484E-2,2.705294E-1,3.5041995E-2,3.7207484E-1],"categories":[],"categories_nodes":[],"categories_segments":[],"categories_sizes":[],"default_left":[1,1,0,1,0,1,0,0,0,0,0,0,0,0,1,0,0,0,0,0,0,0,0],"id":35,"left_children":[1,3,-1,5,7,9,-1,-1,11,13,15,-1,-1,17,19,-1,21,-1,-1,-1,-1,-1,-1],"loss_changes":[2.1975853E1,2.2093742E1,0E0,2.2007504E1,1.0523376E0,2.258643E1,0E0,0E0,2.7413177E-1,2.2054289E1,2.3855724E0,0E0,0E0,3.3094635E0,2.2479214E1,0E0,1.1248646E0,0E0,0E0,0E0,0E0,0E0,0E0],"parents":[2147483647,0,0,1,1,3,3,4,4,5,5,8,8,9,9,10,10,13,13,14,14,16,16],"right_children":[2,4,-1,6,8,10,-1,-1,12,14,16,-1,-1,18,20,-1,22,-1,-1,-1,-1,-1,-1],"split_conditions":[3.6560142E-1,1.8536513E-1,4.8643357E-1,3.1393874E-2,4.0969124E-1,2.1975464E-1,3.2499763E-1,1.8591585E-2,3.340772E-1,2.0538726E-1,1.1939493E-1,9.346667E-2,3.6103332E-1,1.6674027E-1,3.9830994E-2,-3.848247E-2,1.8004665E-1,3.5092518E-1,-4.9943205E-2,-2.5951484E-2,2.705294E-1,3.5041995E-2,3.7207484E-1],"split_indices":[2812,3416,0,1337,3905,1382,0,0,1382,4768,3555,0,0,1832,950,0,530,0,0,0,0,0,0],"split_type":[0,0,0,0,0,0,0,0,0,0,0,0,0,0,0,0,0,0,0,0,0,0,0],"sum_hessian":[1.3122448E3,1.3048818E3,7.362858E0,1.2879479E3,1.6934004E1,1.2711221E3,1.6825735E1,1.0469254E0,1.5887079E1,1.2538085E3,1.7313595E1,1.2090578E0,1.4678021E1,1.7587543E1,1.236221E3,1.342695E0,1.5970901E1,1.5763366E1,1.824177E0,1.2137556E3,2.2465424E1,1.1779689E0,1.4792932E1],"tree_param":{"num_deleted":"0","num_feature":"5000","num_nodes":"23","size_leaf_vector":"1"}},{"base_weights":[7.93205E-3,1.0832691E0,-6.7866077E-3,3.43405E-1,1.1364458E-2,-2.2405932E-2,3.0808344E-1,1.2637756E0,-3.5066277E-2,4.2925015E-1,-8.0498934E-2,9.912719E-1,-5.1451698E-2,1.3500401E-2,3.1272015E-1,3.2756513E-1,-6.611479E-2,-2.4600537E-2,3.080422E-1],"categories":[],"categories_nodes":[],"categories_segments":[],"categories_sizes":[],"default_left":[0,1,1,0,0,0,0,1,0,0,0,0,0,0,0,0,1,0,0],"id":36,"left_children":[1,3,5,-1,-1,7,-1,9,11,-1,-1,13,15,-1,-1,-1,17,-1,-1],"loss_changes":[2.0431587E1,1.0756989E0,2.0593172E1,0E0,0E0,2.049657E1,0E0,3.5244122E0,2.0983791E1,0E0,0E0,9.018135E-1,2.0628086E1,0E0,0E0,0E0,2.1120628E1,0E0,0E0],"parents":[2147483647,0,0,1,1,2,2,5,5,7,7,8,8,11,11,12,12,16,16],"right_children":[2,4,6,-1,-1,8,-1,10,12,-1,-1,14,16,-1,-1,-1,18,-1,-1],"split_conditions":[9.894899E-1,2.4147303E-1,2.09155E-1,3.43405E-1,1.1364458E-2,1.2463127E0,3.0808344E-1,1.047069E-1,2.789565E-1,4.2925015E-1,-8.0498934E-2,3.383591E-1,3.7757406E-1,1.3500401E-2,3.1272015E-1,3.2756513E-1,2.514895E-1,-2.4600537E-2,3.080422E-1],"split_indices":[4027,1141,2333,0,0,4075,0,4794,233,0,0,226,4519,0,0,0,4817,0,0],"split_type":[0,0,0,0,0,0,0,0,0,0,0,0,0,0,0,0,0,0,0],"sum_hessian":[1.2894257E3,1.6430412E1,1.2729952E3,1.5429007E1,1.0014051E0,1.2550107E3,1.7984455E1,1.1269851E1,1.243741E3,1.0221423E1,1.0484275E0,1.8609276E1,1.2251316E3,1.0503261E0,1.755895E1,1.4582921E1,1.2105487E3,1.1941157E3,1.6433006E1],"tree_param":{"num_deleted":"0","num_feature":"5000","num_nodes":"19","size_leaf_vector":"1"}},{"base_weights":[9.676152E-3,3.1758256E-3,2.416079E0,-3.018801E-1,1.8469624E-2,2.777559E-1,8.880836E-1,1.57007E0,8.602739E-3,1.0513272E-1,5.108397E-1,-6.505577E-3,1.023024E0,1.1366233E0,-2.0054411E-2,2.8037695E-2,1.0936931E0,3.7716928E-1,2.1096815E-3,2.686726E-1,-1.1285202E-2,6.6571473E-3,3.4810045E-1],"categories":[],"categories_nodes":[],"categories_segments":[],"categories_sizes":[],"default_left":[1,0,1,0,0,0,0,0,1,0,0,0,0,1,0,0,0,0,0,0,0,0,0],"id":37,"left_children":[1,3,5,-1,7,-1,-1,9,11,-1,-1,13,15,17,19,-1,21,-1,-1,-1,-1,-1,-1],"loss_changes":[1.9799963E1,1.9530457E1,2.4679184E-2,0E0,1.9061893E1,0E0,0E0,6.769142E-1,1.899765E1,0E0,0E0,1.8948112E1,1.0927391E0,1.94351E0,1.9469332E1,0E0,1.1747227E0,0E0,0E0,0E0,0E0,0E0,0E0],"parents":[2147483647,0,0,1,1,2,2,4,4,7,7,8,8,11,11,12,12,13,13,14,14,16,16],"right_children":[2,4,6,-1,8,-1,-1,10,12,-1,-1,14,16,18,20,-1,22,-1,-1,-1,-1,-1,-1],"split_conditions":[1.9888861E-1,1.7203074E0,2.3387313E-1,-3.018801E-1,2.00001E0,2.777559E-1,8.880836E-1,6.005133E-2,7.603519E-2,1.0513272E-1,5.108397E-1,2.00001E0,6.298279E-1,7.295757E-2,9.1919684E-1,2.8037695E-2,3.982765E-1,3.7716928E-1,2.1096815E-3,2.686726E-1,-1.1285202E-2,6.6571473E-3,3.4810045E-1],"split_indices":[785,2636,2583,0,910,0,0,3222,1118,0,0,2796,2150,2836,177,0,372,0,0,0,0,0,0],"split_type":[0,0,0,0,0,0,0,0,0,0,0,0,0,0,0,0,0,0,0,0,0,0,0],"sum_hessian":[1.2652784E3,1.2628684E3,2.4100194E0,1.7880774E1,1.2449877E3,1.3672576E0,1.0427618E0,6.8678646E0,1.2381198E3,1.0313367E0,5.836528E0,1.2209294E3,1.7190367E1,1.3330503E1,1.2075989E3,1.3786346E0,1.5811731E1,1.1942403E1,1.3881003E0,2.1786457E1,1.1858125E3,1.0038729E0,1.4807858E1],"tree_param":{"num_deleted":"0","num_feature":"5000","num_nodes":"23","size_leaf_vector":"1"}},{"base_weights":[9.239965E-3,-1.0279376E-2,7.6641136E-1,6.5890837E-1,-3.4096792E-2,1.1727653E0,-9.778652E-2,7.823042E-1,-6.798731E-1,-5.9430417E-2,6.8027717E-1,-2.6434362E-1,1.3200796E0,-1.2820274E0,4.3959314E-1,1.0340157E0,-1.2739445E-2,7.806308E-2,-3.5460836E-1,-7.814907E-2,9.774607E-1,-3.420787E-1,7.746883E-1,1.464955E0,-8.100329E-2,-6.312905E-2,-5.0566155E-1,-7.944612E-2,6.614369E-1,-1.2111074E-1,1.0985699E0,-6.46896E-1,4.542223E-1,-1.05247684E-1,6.464651E-1,1.0543295E0,-5.7940774E-2,-2.50275E-1,8.43533E-1,4.0095905E-3,4.6369436E-1,2.6366335E-1,1.5666999E-1,4.501379E-2,3.543483E-1,1.23528235E-1,-3.1334943E-1,-2.019185E-1,2.4127647E-1,-2.1844292E-1,-2.159514E-2,2.2735533E-1,-2.2276065E-1,3.3198932E-1,1.9789422E-2,2.8328052E-1,-9.565255E-2,-6.7624465E-2,1.3930298E-1],"categories":[],"categories_nodes":[],"categories_segments":[],"categories_sizes":[],"default_left":[1,0,1,1,1,0,0,1,0,1,0,0,1,0,0,0,0,0,0,1,1,0,0,0,0,0,0,0,1,0,0,0,0,0,1,1,0,0,1,0,0,0,0,0,0,0,0,0,0,0,0,0,0,0,0,0,0,0,0],"id":38,"left_children":[1,3,5,7,9,11,13,15,17,19,21,-1,23,25,27,29,31,-1,-1,33,35,-1,37,39,-1,-1,-1,-1,41,-1,43,45,47,49,51,53,-1,-1,55,-1,-1,-1,57,-1,-1,-1,-1,-1,-1,-1,-1,-1,-1,-1,-1,-1,-1,-1,-1],"loss_changes":[1.8512413E1,1.9492128E1,1.1169104E1,7.4755993E0,2.14053E1,7.6648426E0,7.5579348E0,7.8079185E0,2.234652E0,2.2222668E1,7.846403E0,0E0,5.1065903E0,1.2391176E0,1.4729507E0,3.190319E0,3.3599558E0,0E0,0E0,2.2094017E1,2.030922E0,0E0,5.035759E0,2.1929474E0,0E0,0E0,0E0,0E0,5.868845E-1,0E0,2.062729E0,2.4519777E0,3.1260953E0,2.2369339E1,6.840576E0,9.200611E-1,0E0,0E0,4.750803E0,0E0,0E0,0E0,4.8138773E-1,0E0,0E0,0E0,0E0,0E0,0E0,0E0,0E0,0E0,0E0,0E0,0E0,0E0,0E0,0E0,0E0],"parents":[2147483647,0,0,1,1,2,2,3,3,4,4,5,5,6,6,7,7,8,8,9,9,10,10,12,12,13,13,14,14,15,15,16,16,19,19,20,20,22,22,23,23,28,28,30,30,31,31,32,32,33,33,34,34,35,35,38,38,42,42],"right_children":[2,4,6,8,10,12,14,16,18,20,22,-1,24,26,28,30,32,-1,-1,34,36,-1,38,40,-1,-1,-1,-1,42,-1,44,46,48,50,52,54,-1,-1,56,-1,-1,-1,58,-1,-1,-1,-1,-1,-1,-1,-1,-1,-1,-1,-1,-1,-1,-1,-1],"split_conditions":[1.7306404E-1,3.0639672E-1,4.880402E-2,9.1468826E-2,1.9531281E-1,1.8903455E-1,1.6490829E-1,4.319881E-2,1.3971606E-1,1.8450162E-1,5.0667405E-1,-2.6434362E-1,1.0030996E-1,1.1383185E-1,1.1781796E-1,7.518677E-2,1.6451864E-1,7.806308E-2,-3.5460836E-1,9.942748E-2,2.5551972E-1,-3.420787E-1,1.2054503E0,1.3409653E-1,-8.100329E-2,-6.312905E-2,-5.0566155E-1,-7.944612E-2,7.184861E-2,-1.2111074E-1,6.8698205E-2,9.233958E-2,1.5269912E0,5.164044E-1,2.0472395E-1,8.1011154E-2,-5.7940774E-2,-2.50275E-1,1.8845822E-1,4.0095905E-3,4.6369436E-1,2.6366335E-1,8.360456E-2,4.501379E-2,3.543483E-1,1.23528235E-1,-3.1334943E-1,-2.019185E-1,2.4127647E-1,-2.1844292E-1,-2.159514E-2,2.2735533E-1,-2.2276065E-1,3.3198932E-1,1.9789422E-2,2.8328052E-1,-9.565255E-2,-6.7624465E-2,1.3930298E-1],"split_indices":[733,4521,3222,4847,4847,4583,3555,3222,4521,4170,2075,0,653,1451,1451,4083,1451,0,0,2122,362,0,2534,537,0,0,0,0,1020,0,2619,1451,2714,966,1060,623,0,0,1832,0,0,0,303,0,0,0,0,0,0,0,0,0,0,0,0,0,0,0,0],"split_type":[0,0,0,0,0,0,0,0,0,0,0,0,0,0,0,0,0,0,0,0,0,0,0,0,0,0,0,0,0,0,0,0,0,0,0,0,0,0,0,0,0,0,0,0,0,0,0,0,0,0,0,0,0,0,0,0,0,0,0],"sum_hessian":[1.2510417E3,1.2205629E3,3.047882E1,4.1032253E1,1.1795306E3,2.048808E1,9.990742E0,3.7950047E1,3.0822067E0,1.1400193E3,3.951135E1,1.0377666E0,1.9450314E1,2.6859426E0,7.3047996E0,2.8595964E1,9.354081E0,1.240911E0,1.8412957E0,1.120712E3,1.9307219E1,1.401843E0,3.810951E1,1.7898273E1,1.5520394E0,1.1509315E0,1.535011E0,1.7031418E0,5.601658E0,1.0030419E0,2.7592922E1,3.8034637E0,5.5506167E0,1.0811353E3,3.957678E1,1.8210709E1,1.0965084E0,1.1075524E0,3.7001953E1,1.0039405E0,1.6894333E1,3.3971112E0,2.2045465E0,2.4357765E0,2.5157146E1,1.0287365E0,2.7747273E0,1.0964935E0,4.4541235E0,5.374896E1,1.0273864E3,3.705933E1,